1860 64
o 0.53275114 -0.23419699 0.6137985 0.17253086 0.063265264 0.15462759 0.1435057 0.54721504 0.221892 -0.237943 -0.1730273 0.35178477 -0.12358549 -0.5180352 -0.060512062 -0.29707435 0.032635123 0.45968705 0.99498945 0.8457012 -0.2025214 0.043633528 0.16147745 0.26674837 -0.75644827 -0.019354444 -0.5071404 -0.07394834 0.025391806 0.07588127 0.14647968 -0.044780646 -0.025304135 -0.15769985 -0.3516213 0.005222587 -0.18534723 0.49424046 -0.9071108 0.24582556 0.24288617 0.5677176 -0.38325953 -0.92139965 -0.32680687 0.3683895 -0.50283855 0.79356605 -0.73753566 0.07260547 0.29577956 0.6863034 0.008317666 0.1369105 0.028890247 -0.2915819 -0.6224723 0.7607242 0.033579707 -0.5648859 0.98253953 -0.05916884 0.82053226 -0.061613824
 0.36337054 -0.081673615 0.5021433 0.28535858 0.18186142 0.3392648 0.25362846 0.39259866 0.15022644 -0.26617435 -0.088496864 0.25525334 -0.13866945 -0.4591738 -0.05825141 -0.874735 0.28894532 0.8212703 1.1228191 1.2776501 0.05085075 0.3447344 -0.055583935 0.36149305 -0.8706391 0.32625952 -0.4668947 -0.38200453 -0.32060984 -0.13213696 0.1527861 0.012375801 -0.18219773 0.0040650484 -0.16558826 0.08071348 -0.15722658 0.4245381 -0.70820916 0.08973098 -0.029225634 0.64288545 -0.36810955 -0.80037785 -0.35426766 0.60290754 -0.711611 0.74071825 -0.75906354 0.2901032 0.16757974 0.82236886 -0.0784381 0.086069405 0.016425628 -0.72245324 -0.61062497 0.42547345 0.2203055 -0.60921514 0.87928826 -0.1263407 0.9457663 -0.027760109
que 0.15245026 0.16642949 0.30039254 0.20822942 0.028887998 0.45415175 0.38854682 0.20630187 0.14113325 0.0060337884 -0.100270785 0.17939694 -0.23369703 -0.34427243 -0.03762539 -1.0826939 0.40878102 0.95071375 1.0848596 1.4099183 0.1912878 0.59808785 -0.22918127 0.42426962 -0.7878511 0.64259094 -0.39078605 -0.64973533 -0.56152683 -0.3239721 0.07692492 0.06261074 -0.09426283 0.08391783 0.053563107 -0.035922475 -0.119771376 0.32368934 -0.29736575 -0.1401484 -0.24844022 0.40717354 -0.2091886 -0.44821748 -0.23201886 0.5675855 -0.6549091 0.4338572 -0.5985388 0.5004119 -0.062315132 0.6681648 -0.24066557 0.0704813 0.010473756 -0.7422752 -0.55790836 -0.015534185 0.15780464 -0.5221086 0.5327137 -0.1907722 0.87584734 0.28143585
de 0.037171163 0.36724955 0.048958715 0.3784945 0.3210531 0.6361038 0.4612354 -0.053664546 -0.021163952 -0.11788303 -0.012404907 0.06733886 -0.19518341 -0.0965963 0.072209015 -1.6062745 0.6767724 1.1531153 1.1239176 1.5996724 0.4205849 0.7870953 -0.34599748 0.47029594 -0.81162316 0.8463384 -0.31961727 -0.80797267 -0.85309744 -0.59960186 0.0038932231 -0.000435708 -0.42139453 0.33039355 0.21082318 0.12898068 0.02825436 0.24721864 -0.16545118 -0.19003396 -0.45589077 0.52715 -0.19559947 -0.19994213 -0.38709155 0.6808816 -0.8630112 0.31778708 -0.56803924 0.72901237 -0.10202673 0.74751765 -0.24969131 -0.024447614 0.14395767 -1.1758889 -0.33418664 -0.4569338 0.5576714 -0.5780421 0.56156373 -0.16742253 0.931266 0.08617575
rt 0.26196992 -0.108314216 0.44774544 0.48346803 0.19496019 0.3423578 0.12437621 0.26391947 0.40781116 -0.23778412 -0.018285947 0.34593403 -0.25368717 -0.38510883 -0.09259404 -0.97284883 0.3710445 0.9349372 0.9184583 1.4219075 0.23785938 0.6802102 -0.2899242 0.2688688 -0.76303756 0.27277893 -0.42661974 -0.54529023 -0.31530654 -0.34569228 0.124699466 0.011857238 -0.2940589 -0.06777507 -0.10443179 0.11377806 -0.31371707 0.5236987 -0.5004426 -0.10351264 -0.23566619 0.56441814 -0.24359667 -0.6999464 -0.30042675 0.71029526 -0.620942 0.47062477 -0.7539622 0.46546906 -0.038047373 1.0584662 -0.078856185 0.2251328 -0.2560725 -0.7628386 -0.6226801 0.3439908 -0.011683039 -0.55971724 0.49522442 -0.12915145 1.2159765 0.14465919
n 0.55802137 -0.21482661 0.6414077 0.16020378 0.1566081 0.19006313 0.16235217 0.52908504 0.19257222 -0.28878152 -0.18135017 0.26014626 -0.004994479 -0.5384829 -0.07970591 -0.36698362 0.035597295 0.4753648 0.90465444 0.7850697 -0.24049321 -0.055067644 0.12314668 0.24610627 -0.81095064 -0.037423585 -0.31560403 0.021730915 0.08283352 0.078452155 0.17374061 0.048756152 -0.11676711 -0.062673435 -0.30636963 0.048674665 -0.21896975 0.49335676 -0.8696439 0.2919818 0.27468207 0.6348822 -0.36046445 -0.97004104 -0.28270888 0.34145904 -0.42065528 0.8712764 -0.61475414 0.021909405 0.3097917 0.68212044 0.13486758 -0.020481922 0.05618365 -0.35401452 -0.5023965 0.76012075 0.048172835 -0.62339556 1.0274487 -0.010619151 0.6603838 -0.1556868
a 0.34185755 0.044213444 0.5313446 0.29784018 0.2013927 0.3381659 0.25693917 0.3244354 0.09344789 -0.23125038 -0.07053604 0.19235595 -0.19344579 -0.43788007 0.13024211 -0.9021186 0.22183152 0.844442 1.0498912 1.1497866 -0.027677288 0.29451394 -0.25514194 0.34666866 -0.79883033 0.31827098 -0.358014 -0.3774761 -0.22997554 -0.032550257 0.114452556 0.09196419 -0.10810099 0.18498692 0.08863023 0.09031028 -0.2033111 0.34149468 -0.6088506 0.09906075 -0.070949405 0.57655317 -0.37576815 -0.76182157 -0.32784778 0.48782492 -0.6248906 0.7364606 -0.677216 0.27693397 0.07234455 0.61566 -0.064608246 -0.08452822 0.13783708 -0.7288558 -0.5068604 0.35352668 0.15179013 -0.7614396 0.81283087 -0.13446504 0.6891998 -0.14333002
t 0.63184065 -0.077125005 1.1245472 0.09491399 -0.12793846 -0.2730082 -0.07434384 0.37654865 0.06458562 -0.32174903 0.16079539 0.40096268 -0.20858903 -0.43544054 0.42087385 -0.266278 0.23819108 0.4278016 0.8793025 0.8899527 0.1568981 0.34117538 0.6152618 -0.079774596 -0.57275814 0.056972004 -0.54895574 -0.36369455 0.02205011 0.3386239 0.12139179 0.15072218 0.28875142 -0.42804554 -0.4822033 -0.005996261 -0.23124145 0.22080126 -0.87671137 0.24806814 0.15960133 -0.09729221 -0.40720016 -0.9163111 -0.0001373129 0.6158481 -0.82674223 0.8178482 -0.9996438 -0.22439602 0.5556818 0.7585597 0.029723432 0.44981158 -0.073175564 -0.12764765 -0.91150594 1.0381824 0.013178223 -0.47268862 0.8561837 -0.15333706 1.1176585 0.18471058
e 0.4201338 -0.10730685 0.587366 0.26765078 0.10859499 0.22990142 0.1389383 0.35881212 0.20859616 -0.20760682 -0.07030658 0.33311343 -0.2287405 -0.45606092 0.0044349814 -0.67207557 0.22923371 0.68765265 1.0589547 1.1466675 0.030771006 0.37307885 0.058780197 0.2644955 -0.745299 0.21098973 -0.5327408 -0.3752719 -0.18535276 -0.10278086 0.1267392 -0.03452558 -0.05598202 -0.08138581 -0.21918532 0.060689453 -0.20112585 0.42367023 -0.7505662 0.080245495 0.012646914 0.4949313 -0.34070316 -0.7660108 -0.32066572 0.52611774 -0.6868753 0.66040635 -0.82485735 0.2902076 0.17433675 0.7898705 -0.11281125 0.13735503 -0.016477365 -0.55212045 -0.6853862 0.5128822 0.115895644 -0.5341469 0.82152224 -0.17818685 1.0026032 0.039244972
https 0.64047456 -0.08504557 1.107818 0.12970445 -0.10641582 -0.25054377 -0.058717098 0.405752 0.11749893 -0.346794 0.18557964 0.42291796 -0.19526969 -0.4659332 0.43903208 -0.2461513 0.2314337 0.43203017 0.9101499 0.8583959 0.17223711 0.2883721 0.5782807 -0.05913059 -0.6135359 0.08355934 -0.53772134 -0.29882187 -0.020480983 0.36771405 0.078381725 0.14842416 0.28447637 -0.43792474 -0.48913005 -0.034497824 -0.17597844 0.27381137 -0.9591996 0.25969353 0.14030018 -0.05782574 -0.4210363 -0.9603111 0.0016670027 0.5969027 -0.83763176 0.8274043 -0.9678816 -0.27504382 0.59967434 0.7605483 0.03286139 0.47998214 -0.07467078 -0.13114221 -0.87512195 1.0594976 0.0652379 -0.4842598 0.90122366 -0.15738054 1.1392231 0.1312935
co 0.63993406 -0.0850953 1.1782278 0.10335388 -0.11906702 -0.29331872 -0.030060973 0.447913 0.050446182 -0.31971866 0.1980824 0.4343455 -0.19796799 -0.49550948 0.44805488 -0.2782951 0.25453457 0.46354395 0.9178848 0.8816551 0.14003474 0.34336698 0.63137484 -0.089273795 -0.59565187 0.066976614 -0.59736985 -0.34717253 -0.0035527209 0.32602322 0.0734144 0.14204855 0.2835704 -0.4821305 -0.5373694 -0.036190573 -0.23342763 0.21938953 -0.9191075 0.2775365 0.1283079 -0.09849404 -0.45821518 -0.9809567 -0.03151886 0.58746976 -0.83234453 0.8537902 -0.9867543 -0.2533066 0.6183508 0.7583561 -0.008419388 0.4517386 -0.09984642 -0.107747026 -0.936749 1.102107 0.056781746 -0.4984057 0.9102561 -0.1818851 1.1948262 0.19776611
eu 0.46136537 -0.1550674 0.6146397 0.24127392 0.102469146 0.20357186 0.14585695 0.41039312 0.23906751 -0.18629298 -0.094422154 0.38271847 -0.23239286 -0.50208586 0.015061373 -0.5732278 0.21194436 0.63437545 1.0468904 1.0908849 0.0013934926 0.34378135 0.10282068 0.24608316 -0.7787661 0.16821076 -0.5480895 -0.34749195 -0.14156887 -0.09424221 0.12235816 -0.04899966 -0.07469159 -0.12010439 -0.24432655 0.026046319 -0.19718641 0.4968955 -0.79769737 0.098994575 0.08046775 0.5236863 -0.34564185 -0.7919489 -0.36289725 0.50739485 -0.65872014 0.69099796 -0.8256078 0.27239823 0.22133589 0.79612845 -0.11424423 0.17168196 -0.023568502 -0.48190603 -0.713786 0.56032085 0.07540427 -0.5650227 0.87746674 -0.15545677 1.0200946 0.03961416
amor 0.37169445 -0.108034536 0.47316378 0.25396675 0.13940312 0.18291663 0.15393983 0.33710206 0.18422921 -0.20473991 -0.070379555 0.3274859 -0.18757497 -0.39310452 0.0040324866 -0.66516095 0.2538666 0.63770753 1.0038425 1.0744228 0.11669134 0.34185532 0.11408601 0.23373659 -0.7004568 0.18639146 -0.54696286 -0.39508393 -0.2865182 -0.16832708 0.084291816 -0.083708175 -0.086132735 -0.112320505 -0.24414474 0.06083632 -0.1439396 0.4006835 -0.6987148 0.049023204 0.014944032 0.4314177 -0.3135904 -0.6440332 -0.36992165 0.48360142 -0.68030405 0.5811628 -0.80078465 0.29401886 0.19564183 0.73930603 -0.13384749 0.18204828 -0.0472802 -0.54728854 -0.65665925 0.3658733 0.14914635 -0.44245678 0.7320798 -0.16208525 1.0174979 0.038203686
dio 0.33435208 -0.0756591 0.493766 0.22871706 0.07667674 0.22890495 0.19854884 0.32870883 0.15001121 -0.17527857 -0.064789355 0.27986217 -0.1951984 -0.38487688 -0.019834075 -0.69276303 0.25433815 0.6672982 0.984102 1.0977182 0.083216585 0.36407205 0.018082736 0.2613499 -0.7036284 0.2727467 -0.4634985 -0.3772769 -0.25954652 -0.09328271 0.11091269 -0.014972218 -0.0362731 -0.08080925 -0.19936225 0.010957941 -0.14040174 0.358552 -0.59199256 0.024732826 -0.023302373 0.4284256 -0.30105755 -0.64271593 -0.29212525 0.53024316 -0.6436586 0.58410084 -0.69744796 0.26873967 0.16154025 0.67323065 -0.13551936 0.14517707 -0.036954943 -0.529857 -0.61624956 0.39404833 0.12301434 -0.46569878 0.6922468 -0.15600865 0.8935547 0.08445481
revolta -0.115782104 0.37071338 0.04130363 0.45363033 0.39282456 0.63653886 0.574851 0.15406568 -0.1504264 -0.28787118 0.050334692 -0.12606338 -0.006468067 -0.1867922 0.017799415 -1.6388652 0.4046476 1.1237261 1.0427094 1.4669296 0.14310677 0.39313748 -0.77100813 0.5416279 -0.72447944 0.66686696 -0.057089303 -0.50462985 -0.7194791 -0.09998783 0.15230876 0.32965508 -0.31688878 0.5691451 0.41247907 0.13023575 -0.08293086 0.076651834 -0.11048669 -0.11867775 -0.44818318 0.6356778 -0.29056776 -0.46093532 -0.27931565 0.60424274 -0.6516071 0.5039425 -0.4030383 0.4174922 -0.17965151 0.51703894 -0.11817259 -0.26994348 0.16742806 -1.2487049 -0.24927656 -0.32085267 0.39971793 -0.7499807 0.4799542 -0.03035652 0.43786898 -0.21252967
perd 0.52245337 -0.18198162 0.66695046 0.23251629 0.08391444 0.12607107 0.09701141 0.45083663 0.20060374 -0.19514418 -0.113119826 0.36746567 -0.1931227 -0.47967258 0.0069375527 -0.45506418 0.13953038 0.563506 0.9858111 0.9476493 -0.074311845 0.23467413 0.14724392 0.23477113 -0.7375718 0.060356196 -0.48210555 -0.23377436 -0.023640716 -0.029174272 0.12929656 -0.058672395 -0.027335746 -0.12838055 -0.2976393 0.030869989 -0.21153149 0.48366973 -0.84186244 0.15580834 0.15239309 0.49656007 -0.35178673 -0.8555517 -0.30032426 0.43284208 -0.5634111 0.70429474 -0.7745121 0.16298151 0.260645 0.7567054 -0.038154222 0.13911846 -0.012850658 -0.36515933 -0.6730246 0.65399855 0.036643095 -0.54094666 0.9080742 -0.12184723 0.9174641 -0.009400056
se 0.19317703 0.38567016 0.43272868 0.50586855 0.4248695 0.6426524 0.40307483 0.17080012 -0.07254461 -0.33942798 0.040369593 -0.072201446 -0.16848777 -0.36798072 0.34140038 -1.4245865 0.28216714 1.2109892 1.0640846 1.3348767 -0.012429981 0.27207866 -0.9250595 0.52084106 -0.9120246 0.47723374 0.02329116 -0.4762463 -0.30682746 -0.02716449 0.12987049 0.39729056 -0.28707972 0.6743074 0.6458488 0.1486195 -0.31772628 0.18241195 -0.3104088 0.107606664 -0.38712925 0.7367504 -0.39770293 -0.8262917 -0.23125571 0.5345716 -0.5698019 0.77511376 -0.45857114 0.2924516 -0.1969692 0.47822976 0.11173493 -0.42884848 0.37703338 -1.1707274 -0.18444669 0.048082512 0.23870803 -1.186729 0.7822945 -0.024280561 0.35842058 -0.4506311
s 0.55599517 -0.21008378 0.8248533 0.19652386 -0.026277347 0.0070464243 0.033075932 0.4010296 0.2079969 -0.28552338 0.013601525 0.33002564 -0.18374673 -0.45458722 0.2288792 -0.43106946 0.20891601 0.5278779 0.8981078 0.8767865 0.005775243 0.27742827 0.3219248 0.14067177 -0.6852178 0.06408507 -0.4712372 -0.2615918 -0.014139071 0.15455177 0.18312827 -0.023716733 0.021324297 -0.2795802 -0.4271499 0.055559896 -0.16559157 0.28190115 -0.81955695 0.18962134 0.15926336 0.23815867 -0.39422473 -0.85967845 -0.2521905 0.50498796 -0.65364903 0.72236896 -0.7324377 0.0020102086 0.38541332 0.74032557 0.020655187 0.29613242 -0.025633972 -0.29696918 -0.65740234 0.7783819 0.02234892 -0.43499732 0.81536525 -0.19551072 0.9310379 0.089661956
do 0.686946 -0.29612312 0.7373058 0.14838038 0.20319884 0.3218185 0.17049882 0.5414338 0.2509771 -0.2898307 -0.25327292 0.28330743 -0.100687444 -0.66810304 -0.048956946 -0.50262743 0.13647826 0.663909 1.0870754 1.0330465 -0.12398418 0.030552091 0.15988329 0.29973093 -1.0204359 0.064164706 -0.43395025 -0.13773815 -0.023674903 -0.14314254 0.13496666 -0.0044003054 -0.17275079 -0.06631182 -0.2563672 0.046062656 -0.27988636 0.5730666 -0.99694574 0.3213653 0.24107404 0.81592107 -0.44229794 -1.0864587 -0.3843559 0.46844745 -0.59287727 1.006291 -0.7363046 0.124758065 0.34812766 0.79792297 0.13940494 0.022343548 0.16542415 -0.48838452 -0.5302399 0.8455661 0.20266643 -0.84123206 1.185349 -0.07391117 0.82546246 -0.17021096
pra 0.59439987 -0.24162796 0.86101323 0.253671 0.02781646 0.1277962 0.09036676 0.43319947 0.2742548 -0.29066142 -0.019600334 0.38679793 -0.30049425 -0.53162986 0.15980998 -0.6591352 0.3269285 0.72141325 1.1476693 1.1194412 0.0061660046 0.3821456 0.25258082 0.26677665 -0.89787716 0.151371 -0.5866621 -0.39661238 -0.06512073 0.016079552 0.17388722 -0.062054772 -0.04934104 -0.27804822 -0.42092836 0.09430953 -0.19584864 0.4210074 -0.93089825 0.15325011 0.14309487 0.42700583 -0.4220302 -0.9511886 -0.4058336 0.6150175 -0.7910298 0.81706214 -0.8253904 0.17770989 0.33701435 0.9138053 -0.053973306 0.29914692 0.008543077 -0.47544485 -0.75186425 0.7787652 0.06977394 -0.54249424 0.9808217 -0.26752093 1.1267086 0.13185385
em -0.17250517 0.237322 -0.07514773 0.38968363 0.30855268 0.58108765 0.5122837 0.1663143 -0.10518416 -0.22531588 0.007489941 0.026116926 0.0020155574 -0.1179183 -0.1895998 -1.5395522 0.48924914 1.0290546 1.057021 1.571758 0.26239368 0.5249116 -0.42858645 0.490536 -0.7021744 0.71721447 -0.2486432 -0.5310105 -0.8522374 -0.28901145 0.15402566 0.0841971 -0.38811246 0.27372873 0.114424944 0.13415603 0.09131501 0.18734184 -0.17866683 -0.1634936 -0.38795042 0.62939596 -0.19968882 -0.3282612 -0.35929272 0.67277646 -0.7078263 0.38195872 -0.46075106 0.50963086 -0.101507805 0.68996644 -0.22515877 -0.03370449 -0.0009833939 -1.2043532 -0.39206254 -0.3244303 0.50918925 -0.37306383 0.4362422 -0.0831849 0.71331733 -0.012323741
uma -0.2350719 0.043130923 -0.13107415 0.38238907 0.03297266 0.4534019 0.40145704 0.25625473 0.3950013 -0.07294328 -0.045291416 0.32391086 -0.13634314 -0.24439462 -0.53897476 -1.3587021 0.5423952 1.0665276 0.98605186 1.8818088 0.42047748 0.9614087 -0.29937127 0.37114015 -0.6260497 0.7158865 -0.59127074 -0.7482349 -0.95391667 -0.46774286 0.17649525 0.003395661 -0.22991967 -0.12780795 -0.20108423 -0.021174952 -0.04044416 0.44720474 -0.14937246 -0.4433778 -0.44995946 0.45906788 -0.018479355 -0.27686876 -0.30941382 0.89276516 -0.6141761 0.15354277 -0.6936537 0.7267036 -0.14838675 1.0768639 -0.37171203 0.37397978 -0.52418834 -0.9764638 -0.77183336 -0.16453445 0.080448754 -0.18120044 0.043430693 -0.17146921 1.3305804 0.60241795
com 0.33259317 -0.04660751 0.5508805 0.22507966 0.14139412 0.28818798 0.22970861 0.40428963 0.14434788 -0.14650781 -0.11650884 0.2423477 -0.21235324 -0.41864508 0.016452715 -0.7849394 0.17230637 0.74938107 1.0624242 1.1789352 -0.0045453846 0.3040429 -0.032616664 0.35977858 -0.7238807 0.269353 -0.3989714 -0.32365033 -0.25766367 -0.050178036 0.13468403 0.02174197 -0.063640796 0.043934368 0.0039303373 0.013480734 -0.15455672 0.35839662 -0.6822447 0.068003245 -0.02905512 0.54687047 -0.3310054 -0.72670585 -0.3472517 0.46382195 -0.7011887 0.6572269 -0.72598517 0.26959887 0.12602578 0.65525407 -0.11970807 0.097760245 0.06705912 -0.5631557 -0.6563322 0.4039742 0.12781565 -0.593921 0.772836 -0.15647215 0.77935374 -0.007764932
tem -0.31441602 -0.15063126 -0.21014664 0.5283217 0.1860737 0.33493882 0.33527905 0.36428306 0.46335644 -0.23510914 -0.033408858 0.32676426 -0.027408473 -0.21472654 -0.65357786 -1.2487853 0.3607741 0.89823496 0.81671107 1.7533844 0.31147325 0.76662 -0.39550495 0.28084552 -0.46246767 0.415251 -0.5667414 -0.4784315 -0.78500205 -0.3242827 0.22640093 0.002419046 -0.34438547 -0.13443987 -0.3015515 0.05909321 -0.1303371 0.47309497 -0.25491187 -0.4514559 -0.3663003 0.5409744 -0.016293129 -0.40249482 -0.34727404 0.8051295 -0.4029742 0.2148806 -0.6976438 0.60097575 -0.1238529 1.1915078 -0.24449411 0.3717455 -0.6643039 -0.938701 -0.7438101 0.056313053 -0.11520691 -0.11486807 -0.05327948 -0.02585734 1.3218378 0.43891868
contra -0.09613541 0.35497344 0.034179132 0.4173969 0.44910228 0.72741157 0.6762525 0.32763258 -0.2473065 -0.47953776 -0.0051440825 -0.19336264 0.22976862 -0.2896029 -0.08282346 -1.6105562 0.3117326 1.1526979 1.0385786 1.431343 -0.1292665 0.1213665 -0.87060136 0.601054 -0.8122253 0.5746439 0.10328853 -0.28970814 -0.6638396 0.10320752 0.25117794 0.40441427 -0.38777134 0.5712469 0.33983108 0.12900926 -0.1180169 0.066306695 -0.17654093 0.06758015 -0.28946114 0.82549745 -0.38257465 -0.7180121 -0.27024847 0.54161984 -0.50971866 0.78123814 -0.26217914 0.19544138 -0.12698346 0.53090894 0.07328619 -0.48347872 0.19611868 -1.3339342 -0.16191143 -0.13842364 0.38905236 -0.8503408 0.664388 0.11819582 0.26055685 -0.40515617
ajudar -0.53654134 0.18006264 -0.4909973 0.5746666 0.29485026 0.71717095 0.6549219 0.16208707 0.20270033 -0.19159041 0.013242988 0.12275601 0.045817714 0.009709239 -0.627727 -1.9794934 0.6564006 1.2868474 1.0197372 2.2004743 0.5776214 1.0096756 -0.6615243 0.55373305 -0.58460015 0.9511525 -0.43067572 -0.7908347 -1.3208389 -0.53327507 0.1944601 0.12410402 -0.4811002 0.16268107 0.012974095 0.09459252 0.116977714 0.2671939 0.121699065 -0.56560737 -0.7010604 0.62851495 0.04191868 -0.14645365 -0.42205226 1.0069475 -0.6767002 0.06123271 -0.59755665 0.8778492 -0.3062642 1.137466 -0.39262983 0.21146731 -0.5375128 -1.4787081 -0.6111647 -0.6217293 0.345957 -0.13361779 -0.04831875 -0.106300466 1.256965 0.47905737
q 0.4697411 -0.12382997 0.6648446 0.2663581 0.1073222 0.22100873 0.14807837 0.4065398 0.23246871 -0.22275047 -0.07722343 0.39076895 -0.21314271 -0.49885422 0.015257445 -0.6696058 0.24349225 0.7201342 1.101794 1.2063227 0.01988158 0.34753373 0.0937263 0.26364568 -0.80938107 0.22944863 -0.5587269 -0.36668035 -0.18217143 -0.09205153 0.124242745 -0.0066566956 -0.0725825 -0.121606246 -0.22539254 0.04653002 -0.21842785 0.476399 -0.80660033 0.119646996 0.052900877 0.5319341 -0.36448163 -0.8121 -0.33552346 0.57362807 -0.70409787 0.7565537 -0.86943364 0.26374266 0.23245054 0.8438221 -0.12693706 0.16009006 -0.0614147 -0.52991486 -0.74408305 0.57903075 0.09396269 -0.5964372 0.8811816 -0.15759961 1.0860692 0.04098557
um 0.43669897 -0.07192223 0.62275696 0.25545314 0.119600184 0.22632658 0.16575693 0.36492136 0.16937828 -0.22695419 -0.04963681 0.31265602 -0.23012774 -0.46114248 0.057240892 -0.72611433 0.25399697 0.7293127 1.0872208 1.1869414 0.07785308 0.4034729 0.04870063 0.26342815 -0.7877029 0.25742495 -0.5192706 -0.4240494 -0.21845303 -0.08559998 0.10066614 0.0006421954 -0.07363514 -0.075271286 -0.19578125 0.04164321 -0.1611633 0.4136296 -0.74288845 0.0995478 -0.0049841944 0.47912452 -0.35356203 -0.7755614 -0.32973063 0.5739851 -0.73200476 0.7122118 -0.81439483 0.2665802 0.19962241 0.78474283 -0.109860934 0.12949206 -0.005866766 -0.57933676 -0.6967704 0.49509218 0.17310324 -0.6014552 0.8383391 -0.19281933 1.0066357 0.046553854
mas 0.6213553 -0.22354163 0.675512 0.16453438 0.23664835 0.37619433 0.303328 0.60318166 0.2075032 -0.42852643 -0.24052113 0.16176054 0.1289621 -0.6843209 -0.088078775 -0.4891635 0.038606144 0.6450009 1.0335379 0.8993355 -0.36669493 -0.167185 -0.083945826 0.35754633 -1.0079135 0.008428128 -0.23001422 0.10016605 0.030938175 0.12064983 0.18431365 0.17394564 -0.22994256 0.0811557 -0.21435536 0.054093935 -0.32917413 0.5119752 -0.9496913 0.38749906 0.30726594 0.86132836 -0.48500884 -1.1525847 -0.2897579 0.42823306 -0.43869781 1.0855533 -0.61667806 -0.035118442 0.29826686 0.7309355 0.2511646 -0.18614174 0.13777366 -0.50528497 -0.35647753 0.87994784 0.111699395 -0.9015392 1.2163633 0.03412279 0.5905597 -0.32088563
est -0.0039774585 0.16480644 0.09891916 0.28638738 0.23516645 0.40520826 0.36925516 0.17287417 -0.09625977 -0.2384395 0.013963853 -0.01038533 0.00038140235 -0.17376941 -0.075158946 -1.0287791 0.26657337 0.733426 0.81321615 1.0909185 0.07163734 0.25355843 -0.3897662 0.3657164 -0.5823067 0.3981978 -0.15763938 -0.29281405 -0.4723154 -0.054850485 0.12654226 0.15008096 -0.23929472 0.24654436 0.08975173 0.0842053 -0.031499173 0.1425771 -0.21068835 -0.017292755 -0.228749 0.49893582 -0.23395278 -0.40020782 -0.22772197 0.46731055 -0.4888898 0.43255693 -0.38599 0.28264856 -0.031817265 0.45995092 -0.076636836 -0.13592279 0.02772292 -0.8370555 -0.2557234 -0.09996917 0.32786304 -0.41933954 0.47200194 -0.05917168 0.42675462 -0.10834619
me 0.33674282 -0.06852323 0.4959149 0.26730436 0.14389426 0.24164091 0.15305173 0.3252358 0.19279192 -0.21215682 -0.07876991 0.34414765 -0.20333269 -0.41815826 -0.018836537 -0.73063755 0.2637259 0.71802896 1.0309753 1.1895524 0.08004757 0.41993582 0.025337188 0.25080553 -0.743597 0.24833976 -0.54691803 -0.41876623 -0.2928241 -0.16873768 0.12237113 -0.020420892 -0.12781966 -0.06937294 -0.19357862 0.048663642 -0.17173593 0.42831385 -0.6693175 0.031051856 -0.015826888 0.49064538 -0.30466247 -0.6619453 -0.35427544 0.55451065 -0.6650645 0.6032999 -0.80165535 0.3338721 0.12553068 0.78816766 -0.13710524 0.1584497 -0.08744789 -0.5797395 -0.6569831 0.3836158 0.1292245 -0.48766822 0.72445256 -0.1666744 1.0577375 0.0664578
como -0.44689462 -0.05713244 -0.34656164 0.557013 0.15944676 0.425969 0.3959042 0.30431318 0.5349231 -0.19168682 -0.04283377 0.3223966 -0.043493044 -0.18434241 -0.74016964 -1.4917793 0.472154 1.0694072 0.8606393 2.0174186 0.43682113 0.9583342 -0.49899465 0.35031518 -0.46650317 0.60236174 -0.5681508 -0.6063845 -1.0212463 -0.44998762 0.25562096 0.010838378 -0.40263206 -0.124025755 -0.25908992 0.06950292 -0.12645987 0.48410577 -0.08370719 -0.58962905 -0.51357126 0.5534234 0.06941169 -0.2877975 -0.34047854 0.95172143 -0.45735818 0.087889776 -0.6816192 0.7271426 -0.24378031 1.2949934 -0.3177273 0.43987048 -0.79685354 -1.1081522 -0.7789213 -0.15488847 -0.1101189 -0.06317973 -0.24719554 -0.04435123 1.4427826 0.57707036
mais 0.30174738 -0.033674806 0.44034588 0.21832453 0.16665202 0.27547064 0.21597531 0.354176 0.09382529 -0.14909126 -0.100548185 0.2168503 -0.19564223 -0.37351906 0.019532716 -0.7749933 0.21041462 0.6909541 0.9786039 1.0978967 0.035627156 0.30649856 -0.077079594 0.30282918 -0.67545354 0.29758868 -0.35439914 -0.31180957 -0.25948063 -0.11106195 0.110238515 -0.008855696 -0.1111432 0.06798211 -0.010215847 0.036828488 -0.13271508 0.34990323 -0.588075 0.06451847 -0.020539654 0.52031696 -0.30014506 -0.6526377 -0.3448335 0.4150635 -0.62877715 0.6164792 -0.6462309 0.28145084 0.11465421 0.6266523 -0.11803413 0.06715172 0.0974927 -0.59298575 -0.5879278 0.31639323 0.16981946 -0.5465168 0.72364384 -0.12601309 0.72662073 -0.020884564
os 0.74496454 -0.31284487 0.78591263 0.106269024 0.222407 0.35933995 0.25270158 0.6604031 0.19813813 -0.4192395 -0.2993453 0.22624178 0.08602231 -0.701077 -0.096268065 -0.42112467 0.012035688 0.5928487 1.0778408 0.9194375 -0.32472873 -0.22383206 0.06886716 0.33088267 -1.1171042 -0.061471075 -0.29952753 0.123896405 0.10845072 0.052121613 0.16713141 0.13049014 -0.23623958 -0.013806168 -0.28273547 0.01848065 -0.31764755 0.57886016 -1.0335329 0.46303925 0.38664073 0.9282177 -0.5133151 -1.2357737 -0.31922042 0.40297115 -0.49895522 1.162806 -0.64960104 -0.058448017 0.42834818 0.7683482 0.29961666 -0.17580639 0.21130206 -0.46335196 -0.39723656 1.0235695 0.15966456 -0.9401059 1.3523071 0.02226004 0.6157057 -0.3373584
m 0.44747162 -0.15573943 0.6167491 0.24083316 0.12047404 0.18073098 0.11917721 0.36485633 0.20332108 -0.18900931 -0.067961015 0.31888306 -0.22334136 -0.46649718 0.054039177 -0.56220186 0.20118302 0.66805816 0.99947834 1.056546 0.0018067978 0.31526586 0.09770633 0.23652367 -0.7340744 0.16119483 -0.51924634 -0.34951428 -0.110432655 -0.07419584 0.09729456 -0.04173059 -0.042313244 -0.08715467 -0.21861248 0.047522824 -0.18069269 0.436607 -0.7852828 0.110537075 0.05319253 0.5045089 -0.37048358 -0.7932788 -0.33472282 0.48163483 -0.6504613 0.69465905 -0.77581877 0.2211352 0.2102227 0.73160625 -0.069845535 0.12128815 -0.021158827 -0.46547997 -0.6949771 0.5617194 0.109747656 -0.57709116 0.8269053 -0.1644574 0.9453913 -0.022037061
meu 0.44549367 -0.11437144 0.6108693 0.2262139 0.11463953 0.20720711 0.16006114 0.38065946 0.2320009 -0.20243423 -0.10235997 0.35138214 -0.21300605 -0.46469417 0.0289892 -0.68219364 0.2731899 0.7095086 1.0883003 1.1935642 0.08283798 0.40955025 0.09252994 0.27220246 -0.8204149 0.22666356 -0.55191165 -0.41626137 -0.22518826 -0.16872759 0.118507475 -0.042947944 -0.09974095 -0.12682231 -0.24952808 0.0538606 -0.17559192 0.47283697 -0.7743136 0.09579604 0.029203463 0.49529523 -0.33842224 -0.75852406 -0.356299 0.53417444 -0.7103657 0.7038234 -0.8379212 0.31918743 0.1967582 0.8147974 -0.13112764 0.1715197 -0.038965818 -0.552574 -0.6823338 0.48522812 0.1417451 -0.5715321 0.8459485 -0.19847134 1.0731262 0.062424976
tristeza -0.31157082 0.1639117 -0.25937012 0.2952495 0.00590701 0.57831585 0.48735198 0.09575211 0.3875985 0.06659646 -0.12793736 0.303238 -0.12492898 -0.16879775 -0.5829329 -1.5249269 0.64522856 1.1776006 1.0466537 1.9867092 0.5400355 1.0807126 -0.39854705 0.43383026 -0.69347245 0.8944985 -0.56147254 -0.916708 -1.1629887 -0.6584045 0.1456345 -0.05677292 -0.21829547 -0.059744425 -0.12630962 -0.024334319 -0.0152453445 0.42903244 0.07400754 -0.5801887 -0.56355613 0.36468872 0.07795096 -0.10837405 -0.2517561 0.9239962 -0.6317898 -0.020658521 -0.64373153 0.82067347 -0.28837845 1.0123618 -0.4126634 0.33233082 -0.5354429 -1.0479039 -0.70670134 -0.4416172 0.14188448 -0.09752893 -0.070958234 -0.21354523 1.3732616 0.75768995
pelo 0.3464975 -0.055079818 0.41422617 0.22978316 0.14481492 0.174846 0.16420838 0.30740356 0.15196829 -0.20260632 -0.10480209 0.3001005 -0.14962876 -0.33840853 0.05441375 -0.6202215 0.21617414 0.5823798 0.91378236 0.9566312 0.089583516 0.3227416 0.059633527 0.21540992 -0.66815263 0.19249818 -0.48767856 -0.32187948 -0.27519977 -0.1737999 0.09574264 -0.08242818 -0.13969624 -0.015030576 -0.18917802 0.07617957 -0.10691579 0.40812454 -0.61732614 0.05584735 0.014585207 0.42163384 -0.2533846 -0.5837322 -0.36013588 0.4053455 -0.5930156 0.5551238 -0.70036757 0.3054625 0.15310845 0.63644534 -0.118082516 0.1323713 -0.0042643677 -0.52992034 -0.5151032 0.26522425 0.14399602 -0.46690995 0.67133707 -0.16857865 0.88776106 0.0050203954
quem -0.064402856 0.44937685 -0.19850111 0.2973874 0.25600046 0.7779628 0.5518935 -0.12962213 -0.06391799 0.024111383 -0.078081526 0.07827103 -0.18523495 -0.019033212 -0.06436057 -1.7776536 0.915081 1.2458863 1.1581835 1.8099892 0.56841254 1.0704042 -0.13497567 0.5534491 -0.83709735 1.0960138 -0.4333929 -0.9799768 -1.163685 -0.8812488 -0.07581765 -0.11454769 -0.52811414 0.21452361 0.08292421 0.10215384 0.24259435 0.2586623 -0.04704482 -0.36030653 -0.53036046 0.5051967 -0.089678355 0.025016975 -0.4278697 0.7712808 -0.95868534 0.13624662 -0.6167404 0.9325303 -0.096063316 0.85461503 -0.38522598 0.09412729 0.13579947 -1.2789531 -0.3400717 -0.71965444 0.76093507 -0.3411246 0.52851635 -0.25206733 1.147997 0.33229133
gente 0.34384775 -0.122504495 0.4791078 0.16975495 0.108969636 0.18292812 0.16548538 0.35191262 0.18366422 -0.13316591 -0.1319095 0.26143408 -0.14769033 -0.37221617 0.0024771807 -0.5563499 0.11790269 0.5555831 0.9093688 0.8958553 0.0214332 0.2262909 0.0809482 0.2563166 -0.64337826 0.2064484 -0.39657447 -0.25056767 -0.20597526 -0.09435809 0.101739556 -0.054675177 -0.06480622 -0.019275019 -0.10266836 0.037890106 -0.12491185 0.33307165 -0.62566143 0.037117425 0.057388574 0.4392503 -0.2718127 -0.5680396 -0.32278705 0.3705195 -0.5840739 0.55523753 -0.63713694 0.24948664 0.12208203 0.530068 -0.1330325 0.120696925 0.0392478 -0.4191847 -0.5410629 0.36011207 0.064913556 -0.46362966 0.664869 -0.15866397 0.71701413 -0.03500208
deus 0.29516366 -0.064640276 0.33375916 0.16450451 0.11564257 0.14055675 0.09670867 0.22981742 0.10746798 -0.14402291 -0.06181433 0.22478694 -0.14468876 -0.2780583 0.030463155 -0.48304746 0.17628126 0.4500862 0.7577259 0.73876417 0.07247524 0.21907641 0.11418483 0.17299636 -0.53268087 0.12841381 -0.42940107 -0.27797508 -0.22085379 -0.17862488 0.029128239 -0.07643397 -0.05003806 -0.05076582 -0.17396829 0.045276836 -0.09090886 0.31815302 -0.5257791 0.07414101 0.02152039 0.32245696 -0.23623288 -0.44323134 -0.32660246 0.30900624 -0.5229455 0.44707337 -0.5771702 0.25267336 0.113740705 0.49477765 -0.09292042 0.103522435 0.010116143 -0.39423007 -0.43096897 0.19880821 0.12224418 -0.36560425 0.5629185 -0.13645227 0.71746933 0.0028985348
por 0.41894743 -0.09755582 0.54860413 0.20354934 0.08704284 0.19113863 0.111602314 0.3253355 0.18162411 -0.17196104 -0.09153701 0.31771636 -0.2001351 -0.41952956 0.025295973 -0.5623282 0.2343655 0.60154307 0.9310604 0.9482265 0.015471172 0.29864442 0.13860662 0.23277017 -0.69109744 0.18416326 -0.46719205 -0.33902404 -0.16847286 -0.10314775 0.11715995 -0.054251466 -0.065008715 -0.112469584 -0.26312292 0.028262367 -0.15329474 0.38968164 -0.693895 0.104310915 0.056125607 0.4108631 -0.31986037 -0.6814368 -0.3060542 0.4687846 -0.60664594 0.59455615 -0.6968609 0.22805692 0.22003563 0.70508575 -0.09863265 0.16469161 0.0012964711 -0.42744967 -0.5837979 0.46228296 0.12099725 -0.4731179 0.77935594 -0.14369269 0.9011638 0.058725543
ser 0.4256691 -0.10397906 0.61953735 0.2474104 0.107539766 0.18553841 0.11913579 0.3643391 0.21585375 -0.18357512 -0.081111014 0.344115 -0.20311879 -0.47408107 0.032337062 -0.62168634 0.23091996 0.70785964 1.0293827 1.1070044 0.036633726 0.39219123 0.079377696 0.25003168 -0.7807838 0.20333485 -0.5241915 -0.39909208 -0.17037946 -0.113805436 0.12074091 -0.040285397 -0.04551139 -0.117556386 -0.23889391 0.05383293 -0.18786675 0.4481201 -0.74246746 0.07053327 0.040353764 0.4995631 -0.35882407 -0.7637911 -0.3229663 0.50794846 -0.6663839 0.6759907 -0.82455987 0.28391716 0.21085332 0.7882248 -0.103535704 0.15697038 -0.032918125 -0.50004053 -0.6987068 0.508941 0.10209421 -0.5457283 0.8336218 -0.17539346 1.0215262 0.033398766
ncia 0.06623874 0.41622126 -0.11739374 0.22859712 0.16940758 0.8396013 0.5849395 -0.18541974 0.026497051 0.15041466 -0.16655526 0.11839317 -0.22116648 -0.0853985 -0.0065080514 -1.789093 1.0292588 1.3418932 1.2701895 1.9370087 0.6179936 1.2547348 -0.10036065 0.642543 -0.98328793 1.2353429 -0.48120636 -1.1804131 -1.182621 -1.0520465 -0.11747258 -0.1349301 -0.49504977 0.1437375 0.038774263 -0.0014558467 0.23532043 0.35230646 -0.013646219 -0.34104645 -0.582037 0.40694946 -0.10279962 0.092933446 -0.40118963 0.78843606 -1.0564637 0.13948967 -0.71880174 1.0713527 -0.05382166 0.9564388 -0.45536745 0.20587917 0.11977818 -1.2551826 -0.38340315 -0.73920256 0.7205594 -0.36105984 0.61504096 -0.27055207 1.265271 0.54719675
da 0.44399703 -0.10629866 0.63550276 0.26365736 0.10569578 0.23169288 0.12971401 0.36071205 0.17293575 -0.20571603 -0.06339971 0.34041023 -0.24984314 -0.49156788 0.055005737 -0.6613926 0.2567352 0.736045 1.0749475 1.1698701 0.0553167 0.39227816 0.057984743 0.28799382 -0.7874923 0.23904182 -0.50805926 -0.4146407 -0.19878513 -0.10614096 0.1109499 -0.012003146 -0.07131619 -0.0889817 -0.1904397 0.033712752 -0.18547437 0.45473316 -0.760162 0.07596322 0.007861638 0.4822325 -0.36412868 -0.78166556 -0.31609923 0.52036524 -0.6899372 0.7014302 -0.82469445 0.28382692 0.19853511 0.7819363 -0.105557494 0.16378091 -0.015304248 -0.521788 -0.69565773 0.54512006 0.13679045 -0.5681612 0.84567016 -0.17083241 1.0347314 0.030280925
nao -0.5284933 -0.15406016 -0.40265602 0.7078076 0.18795443 0.3695215 0.25994053 0.40360454 0.56524765 -0.19925258 0.044808906 0.2808168 -0.0072521996 -0.081655845 -0.8072271 -1.4252925 0.43129566 0.994944 0.655306 1.8922749 0.48499432 0.9505131 -0.58123326 0.35053486 -0.3151331 0.38848332 -0.48127642 -0.6080938 -0.8040177 -0.42496744 0.24787085 0.006512578 -0.42815387 -0.17245743 -0.29223546 0.13852096 -0.08000907 0.52827597 -0.012486187 -0.59542894 -0.48576513 0.5433185 0.030761976 -0.38939345 -0.39960137 0.9274936 -0.2809394 0.08808015 -0.68496597 0.730065 -0.23027036 1.4004604 -0.28328496 0.5210846 -0.9450235 -1.0594286 -0.74263287 -0.052837353 -0.25242907 -0.010315255 -0.3428909 0.06196386 1.398109 0.54243994
ele 0.40447307 -0.12093472 0.55877477 0.25123033 0.11196675 0.23331611 0.15245894 0.3812603 0.19686948 -0.18241857 -0.07912461 0.33646005 -0.22019157 -0.43384427 -0.026741121 -0.68088883 0.2675646 0.7095356 1.0463527 1.185752 0.06544036 0.41097835 0.03423341 0.28709444 -0.7538895 0.244304 -0.5335271 -0.38934025 -0.22191654 -0.112367325 0.1265118 -0.036134824 -0.079815835 -0.10896201 -0.22244556 0.045580965 -0.19995032 0.43237153 -0.72638124 0.05395815 -0.01023478 0.47486168 -0.34074676 -0.7202085 -0.335283 0.5517377 -0.66568816 0.61806536 -0.80353385 0.3094491 0.17081496 0.8153236 -0.117951356 0.15994544 -0.042163227 -0.5371024 -0.6933926 0.4759393 0.10192321 -0.5130388 0.7755958 -0.17160991 1.0061157 0.07617833
isso 0.4562937 -0.12245548 0.59183526 0.20591138 0.12875389 0.20824547 0.13892584 0.39039662 0.16422774 -0.23373902 -0.11318483 0.31507406 -0.15840894 -0.47277465 0.030714206 -0.53935605 0.19052413 0.62031937 0.9804507 0.9958778 -0.050929002 0.2575558 0.074811175 0.27796435 -0.7615177 0.14264342 -0.45340386 -0.2428883 -0.11046841 -0.06729024 0.12347693 -0.012081622 -0.10236761 -0.095997445 -0.21364912 0.03901656 -0.1830712 0.45331565 -0.73651093 0.12467841 0.10865441 0.53909594 -0.34033427 -0.7768958 -0.29393893 0.44859168 -0.58776987 0.6927818 -0.7257974 0.22621231 0.21005115 0.71572834 -0.026569035 0.09423917 0.00037674172 -0.43982098 -0.59259707 0.533967 0.08448357 -0.5623227 0.8875292 -0.11961253 0.8861284 -0.023232764
esta 0.17398536 0.43483508 -0.07628574 0.054107927 -0.1401189 0.89842093 0.6951571 -0.15220012 0.326914 0.38491684 -0.2564674 0.21896325 -0.4178675 -0.29177365 -0.16261508 -1.8282809 1.0886236 1.548284 1.5249519 2.2445269 0.74614125 1.5829827 -0.03223655 0.7214021 -1.1879174 1.4677624 -0.7096201 -1.4508693 -1.3531306 -1.2270397 -0.15062115 -0.21019487 -0.38035548 -0.060820296 -0.17446408 -0.1547924 0.059876 0.5085427 0.023147538 -0.5385587 -0.56567585 0.2842784 0.0030806086 0.091901675 -0.34235305 0.91355824 -1.0217627 0.07878746 -0.86076826 1.2148894 -0.124183334 1.1627178 -0.50447536 0.33627814 -0.055520337 -1.1053135 -0.5326529 -0.71911013 0.49918517 -0.3974742 0.57716674 -0.43317765 1.6087992 1.0017719
minha 0.4553254 -0.11058695 0.61940926 0.2382998 0.11105862 0.19350451 0.10054766 0.34406304 0.19245249 -0.19864163 -0.043979682 0.3534275 -0.2470194 -0.48978332 0.05734669 -0.61785805 0.26117548 0.7175574 1.0385045 1.0990816 -0.008080077 0.3991022 0.060519185 0.2818686 -0.7489534 0.21180482 -0.54518765 -0.35436502 -0.14973567 -0.08128923 0.08546813 -0.045991007 -0.07388639 -0.07517431 -0.20753953 0.053423353 -0.19758517 0.44522184 -0.7703161 0.09617458 0.024857985 0.50347257 -0.35837412 -0.7860458 -0.3456968 0.5077112 -0.6637673 0.6725161 -0.81031823 0.27480605 0.20319368 0.77829975 -0.11706425 0.100332655 -0.03306647 -0.5256849 -0.696461 0.55144536 0.10045493 -0.5818024 0.845393 -0.1962326 0.9563107 0.017303154
voc 0.46495754 -0.18814267 0.7605087 0.14272629 -0.01996028 -0.021653648 0.009552456 0.3749719 0.16595827 -0.263777 0.05666375 0.28865635 -0.1714706 -0.39398545 0.21652108 -0.37644517 0.19640204 0.41568673 0.80316556 0.71593744 -0.0020953617 0.22629231 0.32539257 0.13653398 -0.6199045 0.04719891 -0.43535128 -0.22127989 0.036659997 0.17678942 0.13819508 -0.006475792 0.025136938 -0.29083437 -0.39580065 0.058772743 -0.15103157 0.20409702 -0.70949876 0.15637912 0.15779997 0.20361349 -0.3570931 -0.7361302 -0.23296228 0.47926697 -0.60559815 0.6411258 -0.61843324 -0.036358256 0.37061927 0.64829415 -0.0037043958 0.25449505 -0.0010376611 -0.2471622 -0.59258354 0.73576576 0.03537976 -0.36234763 0.7244654 -0.183193 0.7829426 0.10713012
temos -0.19927372 0.16804217 -0.28911695 0.16781093 -0.19952223 0.67998976 0.58924925 0.026220936 0.45345065 0.24874122 -0.11923667 0.15879042 -0.24689366 -0.19818 -0.5249982 -1.5019046 0.71481436 1.2414963 1.0952553 1.9872506 0.6524751 1.2965431 -0.26604623 0.55984426 -0.7132496 1.1500716 -0.5226221 -1.091776 -1.1908889 -0.85690904 -0.013328489 -0.033976912 -0.2290416 -0.13588268 -0.17284526 -0.16795994 0.026842743 0.34422156 0.22990282 -0.5917108 -0.61309123 0.2506539 0.124824025 0.15376987 -0.16434516 0.9302534 -0.6583039 -0.14249952 -0.53927904 1.0288621 -0.30914292 0.9649338 -0.4689428 0.41524464 -0.48789403 -0.89623106 -0.5559086 -0.6021374 0.14742497 -0.121186085 -0.013863931 -0.30999744 1.3584454 1.0078043
transformar -0.05250072 0.3284855 -0.13706984 0.082317315 -0.17034115 0.7802316 0.6054268 -0.046710964 0.35037178 0.30799755 -0.30456153 0.31288642 -0.26173404 -0.3132797 -0.39423457 -1.5671536 0.9729603 1.4142339 1.2632209 2.1326778 0.568627 1.4370395 -0.09595485 0.5651108 -1.0323023 1.2876483 -0.6051588 -1.334304 -1.271359 -1.0525948 -0.0575115 -0.14263009 -0.19462217 -0.10125601 -0.123663865 -0.17185405 0.11674941 0.5225819 0.124708585 -0.5895486 -0.6322896 0.25233346 -0.019559605 0.08125443 -0.22028284 0.9682859 -0.91953176 -0.021824105 -0.7352493 1.1238126 -0.23644443 0.9936961 -0.6070147 0.40136445 -0.21290289 -1.0128516 -0.6757353 -0.63582605 0.36435324 -0.19013089 0.25172958 -0.37390864 1.5784563 1.0297539
impot 0.07221742 0.5265593 -0.19503279 0.12866323 0.018392436 0.90912074 0.63978934 -0.23476669 0.15577915 0.24956831 -0.19771948 0.09663489 -0.36871013 -0.16650553 -0.13982758 -1.8481176 1.1073163 1.4963889 1.4849049 2.2008002 0.65274185 1.4235462 0.056145657 0.6843542 -1.1079774 1.4735152 -0.52289236 -1.3927006 -1.36372 -1.2419683 -0.17916262 -0.22206745 -0.4987753 0.09707787 -0.09135256 -0.049834892 0.2666057 0.38960406 0.10907678 -0.50812525 -0.57806283 0.37196255 -0.1182643 0.22561605 -0.28681216 0.95418984 -1.1465605 0.034254655 -0.67067766 1.2644941 -0.13108544 1.0110745 -0.5812773 0.2704972 0.07957415 -1.2423106 -0.41523466 -0.83750266 0.7572706 -0.3112733 0.55897504 -0.32783392 1.5383078 0.8197257
fabioporchat -0.4215878 -0.17667449 -0.33705673 0.48991317 0.22282453 0.18056063 0.21193995 0.23023719 0.4824567 -0.23640431 0.0074366825 0.25213128 0.047714956 -0.07734554 -0.60303223 -0.8875679 0.16797163 0.56222713 0.30612087 1.249646 0.24940228 0.6013059 -0.4853214 0.07797215 -0.1453879 0.24054883 -0.40483078 -0.20350142 -0.61783004 -0.19718616 0.20511608 0.07097949 -0.3581468 -0.13252652 -0.1990868 0.0335811 -0.18806256 0.31663665 -0.06357945 -0.51165783 -0.34495687 0.35796914 0.13016589 -0.15149163 -0.22669646 0.6052468 -0.09356186 0.018505855 -0.4658296 0.36335123 -0.20143616 0.9608454 -0.12869723 0.2704951 -0.70689476 -0.66745764 -0.51019627 0.0037703095 -0.28384554 0.032506812 -0.4306107 0.06421929 1.0084559 0.36394146
gostaria -0.37097028 0.5145915 -0.5410082 0.31871504 0.3271227 0.7024998 0.5457643 -0.25917006 -0.1252203 -0.023323778 0.038280066 -0.11264272 -0.0644278 0.20205927 -0.12541942 -1.7937366 0.7938346 1.0729779 0.9266577 1.6124972 0.51609236 0.8427934 -0.38429236 0.52734137 -0.55493045 1.022765 -0.19297212 -0.80683583 -1.2369276 -0.7673778 -0.0005865952 -0.04872902 -0.55532694 0.40135506 0.18625854 0.12805595 0.33346137 0.04842205 0.30373004 -0.33883727 -0.6194869 0.38813394 -0.047689848 0.29351935 -0.3398163 0.64969444 -0.7749846 -0.07880159 -0.26189986 0.8457104 -0.16482477 0.61719006 -0.37877104 0.060663644 0.058827955 -1.3534137 -0.12698351 -0.962098 0.7433927 -0.14981258 0.13062456 -0.057588685 0.70461214 0.23411839
para 0.4801431 -0.084481835 0.6512379 0.26679757 0.12743595 0.2287112 0.12382427 0.38684723 0.22584851 -0.21343876 -0.09974848 0.358273 -0.23133126 -0.515329 0.04612265 -0.6534992 0.23170236 0.7473705 1.0976516 1.1722087 0.011281057 0.36499265 0.07461463 0.28083143 -0.8144106 0.19730227 -0.5218479 -0.37577653 -0.1769661 -0.10293159 0.13448794 -0.006575809 -0.08050475 -0.07808345 -0.22411853 0.05962128 -0.20599136 0.46827835 -0.7861915 0.13519208 0.03109403 0.53511053 -0.37035567 -0.80216825 -0.31573346 0.5558577 -0.69511545 0.714928 -0.8450829 0.26576796 0.21426336 0.8118501 -0.071477085 0.13809963 0.003474996 -0.5432196 -0.6806872 0.5655188 0.12674373 -0.61330694 0.89592165 -0.17895593 1.0241576 0.021383563
vai 0.4063766 -0.109043956 0.55926013 0.22917199 0.13250394 0.21171659 0.11284581 0.361376 0.19934152 -0.17891555 -0.11720935 0.36066768 -0.17949152 -0.46239874 0.0013046898 -0.6639306 0.2281642 0.72216976 1.0087345 1.1389073 0.0220289 0.36354375 0.023941532 0.24456923 -0.7846702 0.23929332 -0.5074611 -0.3869408 -0.18732107 -0.13315739 0.1407457 -0.038596377 -0.08919199 -0.11523796 -0.19029911 0.042386707 -0.16780491 0.44141293 -0.6994631 0.07781963 0.0063054385 0.5214459 -0.33936837 -0.71267825 -0.3399479 0.54519385 -0.6730768 0.6503004 -0.75795096 0.2992408 0.20945646 0.8019789 -0.100972116 0.14831577 -0.080679394 -0.53965455 -0.65671206 0.48515165 0.10147678 -0.5321139 0.78139174 -0.17547372 0.9913598 0.008920062
odio 0.36521927 -0.03730074 0.5504532 0.21845083 0.059570197 0.22305436 0.16724159 0.28860798 0.20538059 -0.1459731 -0.05083947 0.31202292 -0.21761404 -0.38439348 0.036075972 -0.6897575 0.2934732 0.6988806 0.96973556 1.1367264 0.11823649 0.4163651 0.044458423 0.23654689 -0.7022812 0.31382728 -0.48678803 -0.43451643 -0.26187935 -0.13593368 0.10034256 0.010941651 -0.031820513 -0.108284965 -0.15678394 0.009070881 -0.1663871 0.3668164 -0.61144125 0.045573775 -0.04078392 0.38965812 -0.29826403 -0.62523115 -0.25528762 0.5510722 -0.68182194 0.5862687 -0.7551339 0.29414997 0.16378944 0.72103715 -0.14665265 0.19395919 -0.049040347 -0.50859225 -0.6552823 0.40102866 0.106087096 -0.5096233 0.70251846 -0.15989688 0.99256665 0.12663247
mim 0.48264778 -0.21655083 0.6728934 0.21011658 0.053090185 0.1023454 0.036225308 0.36495364 0.25953668 -0.2404867 -0.0033265313 0.31853136 -0.19162701 -0.41060627 0.13913874 -0.48386902 0.24782494 0.528901 0.85690916 0.85251814 -0.02686116 0.29631194 0.22664917 0.23489249 -0.6832694 0.07388757 -0.44455373 -0.25210428 -0.008845609 0.030011253 0.18559004 -0.089004464 -0.08559436 -0.21701436 -0.36976492 0.110888675 -0.12682514 0.30678132 -0.71887785 0.140721 0.1306739 0.35408437 -0.3592954 -0.7401848 -0.36021346 0.5052719 -0.60049516 0.6475898 -0.61715937 0.14067993 0.26950666 0.7148854 0.0027496924 0.2437774 -0.022610698 -0.3482862 -0.54007846 0.62469625 0.04594846 -0.41597518 0.7398643 -0.22568616 0.86157084 0.11094225
as 0.42644158 -0.07313658 0.61076367 0.27870706 0.12626147 0.27863815 0.1984069 0.38671184 0.2377226 -0.19320309 -0.105045125 0.3661452 -0.26020706 -0.4894056 0.012725378 -0.7997243 0.3098979 0.81403524 1.1436738 1.3472196 0.08215315 0.4799292 0.0059733246 0.331467 -0.86176866 0.2953838 -0.57458407 -0.48759466 -0.27828693 -0.17075291 0.12566377 -0.038576636 -0.12944011 -0.08265916 -0.18451403 0.044456948 -0.19849227 0.4772863 -0.72459865 0.04037152 -0.023520237 0.5276071 -0.34670278 -0.7742194 -0.34780204 0.61450636 -0.7620965 0.70538235 -0.8902273 0.37204885 0.16873829 0.89047235 -0.12351779 0.15554072 -0.056742825 -0.6445393 -0.75151086 0.501088 0.13738258 -0.5920422 0.8691517 -0.21174452 1.1173427 0.077154495
esse 0.42550334 -0.09610751 0.57843584 0.22992358 0.09950807 0.22525913 0.15878712 0.34486654 0.19877233 -0.18828727 -0.09366728 0.32775512 -0.21904245 -0.43555772 0.032518096 -0.6486251 0.25455895 0.71471745 1.0227512 1.1131564 0.061942697 0.3712182 0.03494078 0.276124 -0.74821764 0.23138656 -0.5137009 -0.38384506 -0.19517496 -0.1132843 0.11456644 -0.008269777 -0.06476593 -0.08180724 -0.16654576 0.03639832 -0.17340662 0.41052234 -0.695891 0.09051953 0.0020907552 0.4919791 -0.33583054 -0.6996841 -0.31620193 0.53851575 -0.65716493 0.6575645 -0.78268486 0.27588028 0.19288883 0.76640874 -0.10679971 0.13646084 -0.0012152193 -0.526747 -0.64346474 0.46721908 0.12382859 -0.54199153 0.79708415 -0.1615855 0.9689063 0.037377924
na 0.4373251 -0.08972294 0.6231018 0.27124494 0.14387238 0.25700882 0.14683563 0.3436429 0.20304796 -0.2067165 -0.06624537 0.32845357 -0.25191098 -0.50350475 0.06611253 -0.71954584 0.27754715 0.78759104 1.1062181 1.2100214 0.027942013 0.41330624 0.027458107 0.29710394 -0.83029485 0.24792087 -0.52873105 -0.4138893 -0.22385085 -0.16132666 0.11764414 -0.009548078 -0.11154038 -0.028587844 -0.16034302 0.070280544 -0.21333906 0.44283652 -0.75986433 0.09326879 -0.012708883 0.5323863 -0.38248742 -0.77569884 -0.35768658 0.5547255 -0.7370441 0.719052 -0.8415325 0.32718417 0.15821846 0.81689805 -0.11643331 0.09847414 0.0008206821 -0.6040291 -0.66856 0.50948346 0.156247 -0.6415227 0.8761586 -0.19334555 1.0146277 0.016313864
seria 0.50677794 0.4151055 0.7213852 0.60221523 0.5785231 0.56277645 0.11881124 -0.3075649 0.220607 -0.33725628 0.14437144 -0.08366482 -0.43407008 -0.29411414 0.7717089 -1.2363589 0.41718978 1.1840106 0.743132 0.9483017 0.28819674 0.5613643 -1.0818592 0.24986137 -0.9769958 0.29882994 0.15880911 -0.6210736 0.089656904 -0.42083502 0.0152491005 0.34033817 -0.38790098 0.69720775 0.9350332 0.3398658 -0.63905525 0.31558594 -0.18074918 0.13819994 -0.57888055 0.5629968 -0.38203207 -0.7009599 -0.12859948 0.481819 -0.59399784 0.5042834 -0.31670228 0.41950822 -0.3486404 0.46518096 0.2842274 -0.507017 0.5712831 -0.983663 0.09917212 -0.047874916 0.17627658 -1.4485661 0.7374588 -0.14795719 0.41948152 -0.4916239
gestores 0.44182754 -0.0040814914 0.49156556 0.132442 0.33858597 0.53931636 0.46952635 0.66616595 0.007272177 -0.57571036 -0.28545076 -0.10323985 0.38681555 -0.6062157 -0.046579886 -0.5503782 -0.035563707 0.7259545 0.8854176 0.812846 -0.5757854 -0.45807543 -0.43345055 0.45955113 -1.053961 -0.036412254 0.17145182 0.31970817 0.13297181 0.35507125 0.25876558 0.3680673 -0.34486845 0.3370802 0.008790933 0.14831977 -0.2959826 0.36867923 -0.67939425 0.37543812 0.2403385 0.9329414 -0.46531343 -1.1752564 -0.12989579 0.23545937 -0.19868125 1.1547269 -0.25778443 -0.22297533 0.20897588 0.49039522 0.4551837 -0.6059082 0.25925773 -0.6682726 0.009443728 0.69033587 0.11746898 -1.0979908 1.2442005 0.26980528 0.024281165 -0.58033013
fazer 0.26523858 -0.07903806 0.36877638 0.16907233 0.06946538 0.19949152 0.123157464 0.25642323 0.16992746 -0.10952983 -0.072329074 0.2749218 -0.13842928 -0.30976123 -0.035776578 -0.52479404 0.18996951 0.55008596 0.7566244 0.8578919 0.05224662 0.3083145 0.0255647 0.20143327 -0.5466462 0.21838228 -0.40777147 -0.3095784 -0.20643003 -0.10292335 0.10080685 -0.055591896 -0.062306855 -0.06985627 -0.14309843 0.038280852 -0.13716176 0.30723038 -0.5013909 0.030318487 -0.0002408172 0.37944657 -0.2342914 -0.51735884 -0.26336634 0.40578315 -0.51097053 0.46985504 -0.582403 0.26835787 0.1166561 0.58343714 -0.082755916 0.10890441 -0.07611899 -0.4294221 -0.4901524 0.3203773 0.08027126 -0.37400457 0.5598605 -0.1403575 0.72599643 0.044865806
d 0.4058226 -0.0758727 0.5561924 0.19097383 0.065438785 0.1761546 0.11216449 0.29359022 0.16142637 -0.17657213 -0.036548134 0.30388176 -0.20062116 -0.40547878 0.060067914 -0.56846464 0.23494741 0.60910314 0.903727 0.9907944 0.06414499 0.36773777 0.101074204 0.21619369 -0.6715909 0.20539524 -0.45015255 -0.36562878 -0.16440636 -0.10527883 0.10420028 -0.00891148 -0.054395296 -0.12616597 -0.20221889 0.020729499 -0.16169123 0.37120733 -0.6345691 0.06914621 0.026761007 0.37601507 -0.3004775 -0.6544751 -0.26130494 0.49036086 -0.60892826 0.59386426 -0.7173637 0.21444379 0.19312449 0.6847869 -0.085922696 0.16472976 -0.013836705 -0.44145104 -0.61141336 0.45269486 0.10577508 -0.47923523 0.7274355 -0.14739475 0.9022587 0.07716644
rconstantino 0.46089426 0.05485191 0.67636985 0.49780467 0.3360177 0.2646866 -0.2121344 -0.19941232 0.2592626 -0.27600694 0.19510348 0.18656477 -0.2902092 -0.23656186 0.4770009 -0.42920032 0.2116786 0.68604064 0.26690224 0.44317302 0.19015741 0.47166395 -0.68767625 0.072569795 -0.6531706 -0.017461449 0.13150927 -0.34153658 0.2502499 -0.47826403 -0.050761268 0.055253975 -0.33310097 0.25514486 0.5581022 0.1342051 -0.5210168 0.32701975 -0.11425936 0.10472292 -0.33995676 0.34776986 -0.1567301 -0.41037393 0.013650574 0.34910914 -0.31357506 0.18291102 -0.29783845 0.22547115 -0.2659291 0.47374043 0.3065211 -0.18669613 0.16762513 -0.40685174 0.10402201 0.21807364 -0.040759612 -0.8389009 0.35572866 -0.13201712 0.56540734 -0.2855367
diante 0.8628502 0.13996993 1.2002059 0.6635935 0.60711443 0.52925473 -0.22662005 -0.38550755 0.60716814 -0.46250427 0.12548597 0.19615416 -0.6333251 -0.3642162 0.8255356 -0.8465074 0.4534781 1.1819646 0.6089398 0.8720443 0.36757693 0.8638398 -1.0089486 0.1143193 -1.1796815 0.0613457 0.0811201 -0.7360769 0.4289436 -0.70974344 -0.062823646 0.2061197 -0.55862373 0.36565176 0.74592286 0.3621853 -0.95206106 0.66935503 -0.41644612 0.14021593 -0.6337338 0.65436506 -0.43223876 -0.8118989 -0.0025574758 0.59267426 -0.68548685 0.421156 -0.54654145 0.47965628 -0.36513174 0.73574984 0.45774254 -0.36128888 0.38385677 -0.7832778 0.02126081 0.3309566 0.06384943 -1.5415125 0.8271068 -0.22279704 0.90471953 -0.44939226
deste 1.056949 0.1840821 1.469073 0.915172 0.6324459 0.65994656 -0.18476988 -0.2643915 0.5269737 -0.50949126 0.24260543 0.3421477 -0.6962738 -0.6243866 0.90631145 -1.2447621 0.5217241 1.554039 1.0709463 1.3357656 0.40195772 0.90921384 -1.1866204 0.21458831 -1.544289 0.13766281 0.06919545 -0.8459453 0.37923345 -0.75723016 0.008162959 0.2375426 -0.58767176 0.513334 0.95500195 0.3900498 -1.025945 0.7238649 -0.5944326 0.3331191 -0.6716963 0.8516135 -0.49051747 -1.1673528 -0.15730101 0.8332874 -0.9012299 0.6595366 -0.7056685 0.54325783 -0.3539621 1.0736372 0.47308972 -0.32833117 0.45557106 -1.083243 -0.091386914 0.5477187 0.11272944 -1.8833485 1.109584 -0.31675822 1.2517098 -0.5056495
quadro 0.6968185 0.33442298 1.1267097 0.79834956 0.58908284 0.5806775 -0.124026395 -0.27587044 0.30555528 -0.466921 0.25569487 0.21173276 -0.4838462 -0.4084232 0.92713517 -1.1870492 0.46702448 1.3766097 0.85838556 1.1515509 0.26396176 0.67700595 -1.0856302 0.3501925 -1.1878164 0.27019727 0.06883461 -0.7626262 0.25267348 -0.6439522 -0.019001562 0.24931048 -0.5047343 0.60558397 0.96589047 0.24742843 -0.7915302 0.54850316 -0.3233634 0.20971216 -0.64381695 0.756402 -0.48067355 -0.85304976 -0.057564687 0.60361165 -0.74627334 0.6820189 -0.65541273 0.49418032 -0.33847314 0.67463535 0.4149367 -0.43089914 0.5479932 -1.0254663 0.04203285 0.3020926 0.18565555 -1.6731268 0.99574023 -0.22809993 0.8693427 -0.61944735
imaginar 0.07812891 0.42686403 0.22313556 0.43941256 0.3734942 0.5066573 0.24311018 -0.17446877 -0.12149287 -0.21946764 0.11212392 -0.25827217 -0.12997212 -0.11649291 0.4690759 -1.1216729 0.1962176 0.87072295 0.53319937 0.635695 0.022973863 0.11312182 -0.9752919 0.30928257 -0.50058866 0.3642448 0.31205687 -0.34817487 -0.056038257 -0.090296805 0.015435524 0.41783684 -0.21065108 0.7539056 0.83850116 0.16602609 -0.29862103 -0.017258406 0.109634206 0.10555571 -0.47989947 0.4590819 -0.29697624 -0.3743979 -0.040927254 0.26374614 -0.31877428 0.38847548 -0.04768996 0.20819198 -0.3378318 0.032760777 0.17161493 -0.5143633 0.51174945 -0.8751267 0.24468288 -0.23776262 0.18388337 -1.0072416 0.39988792 -0.005267748 -0.091914386 -0.50527555
voltasse 0.023850245 0.36412805 0.15038837 0.37300852 0.43060064 0.63667494 0.5692472 0.21993782 -0.17885184 -0.4538767 -0.017631188 -0.3161371 0.19776233 -0.31654286 0.16038775 -1.2538652 0.13514246 1.0004697 0.8334794 1.0231112 -0.19515908 -0.05977286 -0.9953986 0.46648684 -0.7682214 0.37479034 0.2750578 -0.119993344 -0.2441354 0.21354374 0.1528734 0.5229384 -0.32933202 0.7215827 0.5427121 0.1817519 -0.276091 0.027089309 -0.15024322 0.09288541 -0.2563263 0.7112203 -0.39566863 -0.71836466 -0.12544236 0.365699 -0.32933527 0.7366418 -0.15137082 0.05846462 -0.18687852 0.24992365 0.20238748 -0.66782576 0.33051226 -1.0917796 0.12751687 -0.05308442 0.22576775 -1.0338084 0.6700358 0.14964041 -0.099145025 -0.5367048
tais 0.3260224 0.10691675 0.47617176 0.33034548 0.42182803 0.6335541 0.6165576 0.50611997 -0.0945006 -0.62635964 -0.07183107 -0.15205038 0.30383176 -0.53916323 0.008159 -1.1701344 0.06289495 0.99732864 1.0377324 1.0377516 -0.39542624 -0.22348884 -0.7686077 0.5648425 -1.0717478 0.25791684 0.12993334 0.06408777 -0.21961544 0.31186703 0.1941485 0.5501728 -0.418837 0.56788135 0.21690102 0.08027925 -0.34447384 0.23897912 -0.59413534 0.3634266 0.026134329 0.9784032 -0.5502576 -1.0958413 -0.15637085 0.55753535 -0.37155056 1.1438215 -0.37516326 -0.051652186 0.10989277 0.56055033 0.32631725 -0.5495912 0.2544751 -1.0449 0.003717997 0.50539017 0.28134102 -1.1582137 1.0748374 0.101798065 0.1245778 -0.646989
opositores 0.6968227 -0.3557363 0.62940806 -0.038855325 0.20168488 0.3098391 0.12876211 0.54515976 0.22858974 -0.36207426 -0.3488462 0.059392773 0.14016564 -0.6646195 -0.16047977 -0.00047023554 -0.064204305 0.3607347 0.6783497 0.3455983 -0.411059 -0.49138063 0.13523996 0.23922616 -0.91567063 -0.16314612 -0.06255449 0.34999326 0.30740705 0.053537417 0.15987447 0.04219866 -0.21462327 0.05793408 -0.22878768 0.118541375 -0.26380658 0.48452652 -0.93900627 0.5418016 0.4146563 0.8809265 -0.38167888 -1.0967686 -0.23890606 0.20543073 -0.14267884 1.0344996 -0.31131312 -0.2131309 0.34366515 0.46250618 0.43329275 -0.20729926 0.28310928 -0.18426713 -0.09207141 0.9789711 0.14309366 -0.84710145 1.2135526 0.13143589 0.19811462 -0.3997199
gov 0.43197942 -0.23026164 0.39485908 -0.0454226 0.12659605 0.15915859 0.09359274 0.32055098 0.099187985 -0.19482613 -0.22436388 0.07855312 0.0687082 -0.36639926 -0.10303946 -0.034917273 -0.021946955 0.13787329 0.42878848 0.3033284 -0.17760518 -0.26661456 0.13924624 0.09856925 -0.53958476 -0.14359134 -0.09612878 0.19745004 0.13661966 -0.017232394 0.103467 0.005994398 -0.121618256 -0.03084436 -0.16013925 0.017755168 -0.1654029 0.28453887 -0.56257427 0.33443797 0.2815813 0.53341746 -0.26450545 -0.60645485 -0.19616088 0.09139419 -0.18883887 0.63000035 -0.24121462 -0.10802227 0.2680329 0.2736763 0.2371458 -0.14727205 0.18450564 -0.11956188 -0.12908173 0.5784283 0.13269149 -0.45485425 0.70975983 0.03247008 0.16894543 -0.21369989
sem 0.3605568 -0.048702803 0.5057965 0.20492052 0.092647 0.21997441 0.15372595 0.30151108 0.1550536 -0.15998074 -0.06406898 0.2884848 -0.1664909 -0.41150585 0.025017984 -0.64455444 0.2650591 0.6657089 0.94389564 1.0535383 0.042132355 0.37503266 0.06493128 0.26970923 -0.72878 0.25234264 -0.46018732 -0.38298294 -0.22956677 -0.12971872 0.10791167 -0.02668316 -0.09616486 -0.09540703 -0.19678862 0.02839511 -0.1390639 0.39278 -0.6239634 0.063612975 -0.0006010713 0.44081604 -0.3078845 -0.6516871 -0.285093 0.49580842 -0.6207203 0.59722966 -0.6969368 0.27175155 0.17187952 0.7051602 -0.10813708 0.123115934 -0.023146074 -0.49387476 -0.57070047 0.3995778 0.14059238 -0.48844007 0.74088025 -0.16249694 0.9018671 0.06501068
vou 0.31219545 -0.049587257 0.4332051 0.23367073 0.11303648 0.24167167 0.14377964 0.28790006 0.18176763 -0.16330828 -0.07837128 0.30845022 -0.1638165 -0.3686789 -0.01846563 -0.67569095 0.23720433 0.6642979 0.9145739 1.0711951 0.054613374 0.385147 -0.01548546 0.2456157 -0.678399 0.26350898 -0.4498329 -0.38877353 -0.24331114 -0.15269038 0.12236015 -0.023443988 -0.10344899 -0.06587794 -0.13595037 0.03580044 -0.15547872 0.3789361 -0.56432074 0.03085377 -0.0349213 0.4521946 -0.273489 -0.5989715 -0.27311954 0.5021543 -0.6047084 0.5502754 -0.6767769 0.3096391 0.1477259 0.70861137 -0.11663061 0.12772593 -0.07918 -0.51848614 -0.5900933 0.35487852 0.10497594 -0.4526737 0.6514112 -0.15046589 0.8963293 0.051509228
tenho 0.28436735 -0.11350938 0.36650643 0.12096754 0.06117178 0.08900059 0.0799096 0.24888286 0.13123305 -0.096959375 -0.07237224 0.21163839 -0.11385522 -0.2979472 -0.04567192 -0.22592892 0.07125252 0.28964326 0.53987354 0.5651739 -0.05255214 0.13173214 0.07587107 0.12807101 -0.41422698 0.029147422 -0.305962 -0.1114208 -0.044804398 -0.05308378 0.059528444 -0.028627148 -0.053143393 -0.081890464 -0.15972944 0.01932041 -0.11962591 0.29040712 -0.4806192 0.07691036 0.09992175 0.2986094 -0.17527148 -0.4851697 -0.18552528 0.25534874 -0.3294471 0.39410913 -0.43575487 0.092606135 0.14365044 0.4368584 -0.016121987 0.10385243 -0.018021083 -0.20615813 -0.41531867 0.3725057 0.0006596383 -0.29874414 0.511833 -0.05283825 0.55062187 0.0053161527
ter 0.32698184 -0.10217549 0.43846345 0.18258382 0.0656674 0.17603292 0.108558245 0.27494174 0.18201314 -0.1492311 -0.05650415 0.28148824 -0.15755212 -0.33206505 0.008890587 -0.48834923 0.18460047 0.5397632 0.79540175 0.8647447 0.03883975 0.28203097 0.04178932 0.20585074 -0.5727629 0.170089 -0.40362006 -0.296146 -0.15005636 -0.076540574 0.102053374 -0.02501006 -0.061974112 -0.098907866 -0.16548173 0.043970536 -0.1405336 0.32940108 -0.54133457 0.06367056 0.013926113 0.36545637 -0.23780002 -0.57103443 -0.25097233 0.42480755 -0.4960468 0.50755936 -0.58849436 0.21416368 0.1481732 0.60406226 -0.06587595 0.13877036 -0.04526029 -0.39505938 -0.50952536 0.38145977 0.075708315 -0.3946077 0.6024078 -0.13711123 0.75457865 0.05339334
vc 0.3512613 -0.06948405 0.48652357 0.20895433 0.105166614 0.2060635 0.11792536 0.28053203 0.16703914 -0.17503063 -0.06281336 0.2592544 -0.18150592 -0.36392653 0.04485502 -0.588059 0.22443607 0.6017145 0.8496355 0.9559521 0.0530835 0.32380757 0.0044577755 0.23875265 -0.65281266 0.20791349 -0.40781635 -0.3300152 -0.16355643 -0.11081541 0.10853573 -0.0052232817 -0.09210568 -0.041525424 -0.12622525 0.056504127 -0.14609669 0.3529104 -0.55754805 0.067452505 -0.0016873404 0.4287769 -0.2730309 -0.60710037 -0.27490574 0.4367675 -0.55960304 0.5473699 -0.6212275 0.23934403 0.1405578 0.6371649 -0.07989064 0.097346984 0.00939789 -0.47254467 -0.52088034 0.37224826 0.099080905 -0.49002108 0.67325586 -0.13895144 0.8008776 0.020675221
dia 0.33698636 -0.066738166 0.44966313 0.19196303 0.09521682 0.17161404 0.13149036 0.26175863 0.12552933 -0.15144661 -0.045755606 0.22632638 -0.16673529 -0.33172667 0.040390056 -0.49691474 0.16969223 0.5329626 0.7748332 0.83574283 0.055538233 0.27981824 0.038794007 0.18032339 -0.548952 0.16581237 -0.37095022 -0.295866 -0.14826837 -0.054601043 0.07818477 -0.011583463 -0.031813964 -0.07241565 -0.14911191 0.032379985 -0.14803249 0.3017707 -0.5492729 0.07111033 0.021434123 0.35311994 -0.24844195 -0.5558299 -0.25051096 0.3867986 -0.518283 0.5300251 -0.5845161 0.18992378 0.16315226 0.56731117 -0.079713225 0.08346801 0.011323935 -0.41059583 -0.5000102 0.37528878 0.11064829 -0.42668027 0.61790437 -0.13262 0.7317352 0.020524086
no 0.4153101 -0.08933733 0.5809442 0.27625078 0.12819408 0.27083364 0.17157297 0.35864216 0.22707564 -0.19477415 -0.06317809 0.33932987 -0.21969308 -0.4482222 0.024570215 -0.75637823 0.28847295 0.7915053 1.0675509 1.2446471 0.08594601 0.43973935 0.0061517586 0.30695793 -0.8082538 0.26654 -0.51493484 -0.43605253 -0.26214385 -0.15823303 0.12573351 -0.010238367 -0.122900575 -0.08947454 -0.17009693 0.05690128 -0.20009296 0.4488439 -0.71387327 0.05225231 -0.03332667 0.5233688 -0.3444615 -0.7551156 -0.33069798 0.5832359 -0.7096145 0.65898293 -0.82189405 0.31923032 0.15495168 0.84101224 -0.11834816 0.15935658 -0.039782267 -0.6160384 -0.68569183 0.46736476 0.13771152 -0.5718413 0.79489523 -0.17434953 1.047424 0.070436165
povo 0.26141745 -0.026075736 0.3381741 0.17100595 0.07160583 0.18113029 0.1070026 0.20250653 0.1074074 -0.112612784 -0.04329355 0.18547828 -0.14730065 -0.26308998 0.025027608 -0.47598824 0.1762766 0.48193252 0.6586499 0.73652357 0.024988739 0.26358145 0.0035883987 0.18464732 -0.490688 0.19405007 -0.28709674 -0.27083942 -0.14513153 -0.09674783 0.06469239 -0.00017370768 -0.049007684 -0.0369761 -0.10378633 0.014185315 -0.0919096 0.25677937 -0.40186158 0.028208463 -0.028334402 0.29979515 -0.21598728 -0.44334024 -0.18878828 0.31701824 -0.4223301 0.39834395 -0.45882195 0.20178623 0.09310245 0.48063076 -0.08124383 0.08484554 0.02285433 -0.3755351 -0.40200853 0.25063458 0.087289676 -0.32907122 0.5012652 -0.1220744 0.59351414 0.04835812
bolsonaro 0.24318685 -0.073294 0.31132168 0.13541594 0.08662853 0.15393108 0.11211028 0.20791127 0.09299025 -0.12929961 -0.06155265 0.17257954 -0.10620132 -0.23369597 -0.010324321 -0.40333903 0.12793966 0.4032867 0.6029185 0.6410758 0.02725342 0.19166258 0.015690938 0.17088331 -0.4470606 0.13624306 -0.2573945 -0.20633395 -0.12535453 -0.08309374 0.07784106 -0.024380095 -0.0660435 -0.040601965 -0.12097214 0.019817205 -0.102521986 0.25930804 -0.39931348 0.059754413 0.0037489312 0.3053941 -0.18954918 -0.43976185 -0.19078664 0.28103688 -0.3603848 0.39157152 -0.43355274 0.15549022 0.09933549 0.4348808 -0.047648128 0.07105078 -0.012919123 -0.32396552 -0.3714577 0.2534281 0.07830305 -0.32597193 0.48392576 -0.079810604 0.55517656 0.020015169
quando 0.3579196 -0.0797923 0.47825152 0.20707126 0.09202333 0.20222923 0.10705799 0.29766977 0.18371391 -0.16270338 -0.06329108 0.3020711 -0.18032292 -0.38596454 0.04005142 -0.53898275 0.2079797 0.569952 0.84098077 0.94748485 0.055056408 0.34700793 0.04862629 0.22740738 -0.6303888 0.19479537 -0.42390615 -0.3422765 -0.15946223 -0.113415994 0.0868177 -0.005488053 -0.06940434 -0.07256659 -0.16783385 0.04746595 -0.14052261 0.37250063 -0.5752223 0.07503479 0.0072322204 0.4096239 -0.27945 -0.58790326 -0.26774427 0.44740152 -0.563038 0.52748114 -0.6636571 0.23512997 0.12346343 0.6623676 -0.08083703 0.11966793 -0.014109275 -0.44385004 -0.5408286 0.40988106 0.08613379 -0.46318373 0.6592243 -0.15016595 0.82380515 0.025738357
ta 0.35301054 -0.0641735 0.4896097 0.2117871 0.118868954 0.20840752 0.12085512 0.28639427 0.16257367 -0.16683833 -0.052202202 0.26739314 -0.17551786 -0.37975216 0.04252183 -0.60296905 0.24480504 0.6248313 0.86543053 0.975849 0.048250284 0.33805466 0.031500153 0.23135948 -0.6476605 0.20197129 -0.43859988 -0.32927018 -0.17676044 -0.13424557 0.09791379 -0.002433783 -0.093604594 -0.066719785 -0.15469149 0.047230963 -0.16160053 0.36832088 -0.5912065 0.067848764 0.008497154 0.42363513 -0.27139467 -0.6371137 -0.2886238 0.44417548 -0.5741528 0.5740376 -0.6818903 0.23997872 0.14148067 0.66300005 -0.070920736 0.11880418 -0.023544362 -0.46313196 -0.5449053 0.38889414 0.11174055 -0.5029945 0.68797845 -0.15632786 0.8522586 0.030367702
j 0.36893 -0.053021535 0.5581631 0.1851862 0.069561 0.121305525 0.098802924 0.28562573 0.13638362 -0.19631682 -0.019541569 0.24856304 -0.15718497 -0.3511437 0.09588318 -0.49842814 0.20152758 0.54277587 0.76699233 0.8691737 0.067962185 0.2828155 0.08793454 0.16499603 -0.59604585 0.16889207 -0.36906627 -0.2965622 -0.114606686 -0.006652409 0.08167724 0.038705785 -0.02358263 -0.11851639 -0.16866083 0.032552138 -0.1724444 0.29666102 -0.569248 0.08471413 0.0032398105 0.30784848 -0.2743445 -0.6213807 -0.17910531 0.43439046 -0.54058576 0.5603667 -0.63197666 0.12345305 0.2001363 0.6132636 -0.028665448 0.14849949 -0.022301763 -0.3745614 -0.5181841 0.48473707 0.077502444 -0.46439025 0.6392199 -0.13120544 0.78220737 0.034008577
rio 0.37691018 -0.21254604 0.56379384 0.18477277 -0.004493296 0.08238396 0.0046037114 0.28561294 0.23401272 -0.20920037 -0.012129018 0.2774839 -0.20598929 -0.35966584 0.13948047 -0.42498112 0.20854966 0.43966907 0.72589797 0.68868446 0.01366509 0.27148995 0.191897 0.16789542 -0.58525485 0.08732431 -0.39297977 -0.26493752 -0.016994212 0.019692168 0.15050212 -0.06613452 -0.046997756 -0.20197804 -0.30367687 0.07844924 -0.12575497 0.2614844 -0.6128604 0.09673161 0.10939759 0.2473978 -0.30317682 -0.63481903 -0.28799006 0.43338352 -0.4949404 0.51082164 -0.5097026 0.10972491 0.22686289 0.6270816 -0.0033256905 0.2174866 0.0041601276 -0.30632922 -0.4698673 0.54048204 0.013817356 -0.32617933 0.5894918 -0.1961648 0.7197162 0.09073785
nunca 0.26836577 -0.07790684 0.4080833 0.18725918 0.084980845 0.1613745 0.10724612 0.26084417 0.15503407 -0.12523168 -0.06789159 0.26940492 -0.14277475 -0.31326455 0.006591898 -0.46604925 0.16935007 0.5192435 0.7127445 0.82844245 0.05716235 0.30305144 0.0021843582 0.1846431 -0.5282655 0.1686948 -0.36916867 -0.29583114 -0.15082435 -0.097324304 0.0835525 -0.015804708 -0.07171118 -0.081025556 -0.12015248 0.035271145 -0.12940472 0.31989488 -0.47737107 0.03592203 -0.005499404 0.3715971 -0.2125611 -0.49506983 -0.24663341 0.37512112 -0.4823436 0.4453198 -0.5596529 0.23255143 0.11681237 0.5661545 -0.08045176 0.12121378 -0.060716387 -0.39216265 -0.48540828 0.3119623 0.075079516 -0.38448167 0.54261476 -0.13498446 0.7005192 0.03951766
perdao 0.37926692 -0.053793 0.5242633 0.26466593 0.13914727 0.26004037 0.16248916 0.29907158 0.20069548 -0.20730631 -0.06664552 0.2818883 -0.20125966 -0.42168617 0.028437315 -0.7376302 0.27898678 0.73740035 0.9964859 1.1413822 0.0792107 0.41048792 -0.038393576 0.26772472 -0.74916893 0.25754407 -0.45006037 -0.40393403 -0.23614174 -0.1511097 0.10810741 0.007654423 -0.12027562 -0.05113544 -0.12323098 0.047697347 -0.19451204 0.40338606 -0.64541256 0.06302224 -0.037391435 0.4922366 -0.31034744 -0.691178 -0.3070207 0.52496946 -0.6480123 0.62506515 -0.73107207 0.29636204 0.119175136 0.7646789 -0.08790159 0.104225315 -0.012449884 -0.5731827 -0.5946625 0.40082577 0.12638497 -0.58238167 0.7511379 -0.15957005 0.9529546 0.044920523
p 0.32105172 -0.08126149 0.4298369 0.14965363 0.07143496 0.15380141 0.07878417 0.2626334 0.13784863 -0.14834878 -0.07559371 0.23808083 -0.13218467 -0.33558092 0.038977567 -0.4201958 0.16118687 0.4565948 0.69426227 0.75405306 0.0016557764 0.2548177 0.07297016 0.16166525 -0.5362038 0.12927717 -0.34499347 -0.2540935 -0.11992936 -0.071187206 0.08522905 0.009798768 -0.059115432 -0.053648494 -0.15692693 0.020492185 -0.14254573 0.2926306 -0.52114236 0.07946313 0.033641804 0.34784636 -0.24733227 -0.51960707 -0.20617355 0.35945567 -0.45961633 0.47578257 -0.5621537 0.1799068 0.116667666 0.54174185 -0.054118253 0.09467642 0.0040599103 -0.35208228 -0.4344601 0.37957183 0.0823074 -0.3762666 0.57449174 -0.10415806 0.6768037 0.022051485
foi 0.3656101 -0.08356935 0.45870978 0.18614714 0.08993243 0.19522813 0.12528214 0.2734592 0.17470834 -0.15096904 -0.068318665 0.261813 -0.17826921 -0.37564182 0.011465089 -0.5281398 0.22955154 0.5799308 0.8485445 0.9250378 0.03452007 0.31738776 0.05242564 0.23165967 -0.649766 0.20119183 -0.4017786 -0.30537617 -0.16320997 -0.12742381 0.09007498 -0.03694105 -0.09639014 -0.07390762 -0.16489995 0.029471915 -0.14989513 0.37374517 -0.58407164 0.062313225 0.017189426 0.40692386 -0.27898195 -0.6017573 -0.25881565 0.42184392 -0.5360707 0.5458827 -0.6303339 0.23458408 0.15113714 0.6418673 -0.080629505 0.10973521 -0.018782971 -0.42614904 -0.51140845 0.38810983 0.098853216 -0.45125487 0.6853088 -0.1359263 0.810535 0.027793298
mundo 0.21250515 -0.045179315 0.28744838 0.16651845 0.079930454 0.17771119 0.1315354 0.21208161 0.124620155 -0.12385395 -0.046937793 0.16825633 -0.10992321 -0.25103205 -0.033703595 -0.49128225 0.18484445 0.46769017 0.634033 0.7696752 0.07078715 0.27132204 -0.021965645 0.1854125 -0.4591892 0.19953254 -0.28980428 -0.26477066 -0.1835689 -0.09467692 0.0773877 0.0036332041 -0.0878637 -0.039965168 -0.09505134 0.025120476 -0.089690916 0.24574764 -0.3770677 0.020623602 -0.03733125 0.32123876 -0.19711724 -0.416617 -0.21840832 0.33784235 -0.42056262 0.39548975 -0.45699906 0.19183043 0.08746926 0.4786444 -0.0784646 0.08333752 -0.026097026 -0.40291005 -0.40021998 0.22997132 0.08453096 -0.3355584 0.4562 -0.10411553 0.58570194 0.04009517
quer 0.29607207 -0.08283815 0.42385906 0.18429135 0.089707546 0.1769463 0.122506194 0.26975575 0.15965031 -0.15473227 -0.07114659 0.2574001 -0.15204492 -0.3291033 -0.00036318423 -0.52651316 0.19092405 0.5361919 0.77624357 0.8823783 0.037592176 0.30091053 0.01869637 0.1907763 -0.5738454 0.18108521 -0.39357987 -0.31056935 -0.16812645 -0.09626077 0.09465079 -0.027276788 -0.06793159 -0.0877019 -0.17098238 0.033786807 -0.13748653 0.3435577 -0.54586357 0.03789764 0.0022174607 0.36055022 -0.24948034 -0.5656687 -0.23712894 0.41290388 -0.4986749 0.48441032 -0.59258544 0.23180927 0.13461547 0.6034736 -0.08975803 0.11760103 -0.031540714 -0.40878862 -0.5207691 0.37708977 0.083715715 -0.4066599 0.5864637 -0.12088308 0.76719856 0.049767304
muito 0.28756988 -0.05060703 0.3851409 0.17707762 0.10965948 0.17508769 0.124453485 0.25620636 0.12120553 -0.14911637 -0.05018968 0.22556703 -0.13406895 -0.32484463 0.028800035 -0.5283559 0.20247936 0.5287985 0.746371 0.8414094 0.038870063 0.26938272 -0.0033371763 0.19550012 -0.5745313 0.173647 -0.35365763 -0.28749743 -0.16759694 -0.10953896 0.08322506 -0.009627638 -0.09148858 -0.034516286 -0.12664434 0.029036876 -0.13720652 0.3098928 -0.47993612 0.042731937 -0.014419194 0.37361026 -0.24219559 -0.5222824 -0.24043462 0.37389922 -0.49668035 0.46593016 -0.56364024 0.21585791 0.12518035 0.5404568 -0.07594599 0.071035974 0.0063595753 -0.42123878 -0.44719616 0.29875094 0.10809953 -0.4006878 0.59675455 -0.12890132 0.6928991 0.009925768
ver 0.30282742 -0.04420908 0.44462287 0.21246977 0.11165141 0.20276248 0.12194641 0.26084912 0.1564123 -0.16370486 -0.044891126 0.25763923 -0.1725028 -0.34488928 0.03036517 -0.61145544 0.24163689 0.6090231 0.8424096 0.9671256 0.07861294 0.3560678 0.022009969 0.24236402 -0.6304201 0.21214014 -0.3986972 -0.34227344 -0.22220135 -0.12562719 0.10326134 -0.011350394 -0.10439584 -0.0549938 -0.15122375 0.03565734 -0.13541564 0.32619816 -0.5380357 0.04487846 -0.03136867 0.40197736 -0.25782016 -0.5598156 -0.2685664 0.46257287 -0.56985587 0.5078224 -0.6337968 0.26315615 0.117899746 0.6521635 -0.09429539 0.11654557 -0.023154195 -0.47826648 -0.5149974 0.32574373 0.102707304 -0.43682158 0.6397334 -0.1425552 0.8206011 0.06303767
essa 0.34501216 -0.06538202 0.50049275 0.24980386 0.11883854 0.25816426 0.1706449 0.30127802 0.19654527 -0.18123983 -0.061049618 0.29935002 -0.20167692 -0.4157251 0.019122723 -0.7202125 0.27929327 0.7302161 0.9778132 1.1597061 0.079129435 0.43345365 -0.020535072 0.27659202 -0.7246102 0.27974987 -0.46649653 -0.4189588 -0.2611904 -0.1598022 0.11069441 0.0059663453 -0.10945224 -0.058641084 -0.156112 0.037862573 -0.16862008 0.40693724 -0.60461575 0.028916117 -0.05563736 0.4568269 -0.29978755 -0.65646815 -0.28728625 0.5525644 -0.6386459 0.5879774 -0.72717416 0.3059888 0.13036342 0.75319237 -0.10230257 0.12864469 -0.05506627 -0.57199365 -0.6058213 0.39267084 0.12688689 -0.5128453 0.7119075 -0.1562906 0.9698659 0.08608206
es 0.38444307 -0.06274733 0.5210455 0.19727814 0.11482991 0.21712019 0.1246639 0.31626627 0.17154847 -0.15305783 -0.08721829 0.2904825 -0.19584218 -0.40014002 0.033756368 -0.57521385 0.2241778 0.6131927 0.87786853 0.98014903 0.03877968 0.34003127 0.023550002 0.24774627 -0.651965 0.18938658 -0.4182586 -0.31968305 -0.17950648 -0.11869513 0.07642842 -0.03167741 -0.076393165 -0.08091564 -0.13625988 0.0571754 -0.17698096 0.38197485 -0.61318785 0.05775545 0.011054861 0.42863107 -0.28447574 -0.63836557 -0.29143485 0.43773746 -0.5762123 0.588022 -0.68084306 0.24704231 0.17362294 0.68425745 -0.06946458 0.10179709 0.018872282 -0.48358253 -0.5687754 0.42538613 0.101433665 -0.50481623 0.7317827 -0.14339457 0.8355492 0.030811694
agora 0.26749864 -0.067647025 0.36432347 0.1968808 0.086693466 0.16801034 0.10029104 0.2479779 0.16915861 -0.14690413 -0.060958497 0.2597869 -0.12551789 -0.3188927 -0.013552011 -0.49821505 0.17810734 0.506443 0.6960742 0.82143515 0.06436073 0.27735856 0.019758178 0.18601218 -0.5105289 0.16731998 -0.38004512 -0.29235277 -0.18420288 -0.106204934 0.0754392 -0.028167909 -0.08492955 -0.05254675 -0.13503326 0.040061932 -0.14191741 0.31983325 -0.46365097 0.012502152 -0.015668299 0.34262747 -0.22174774 -0.46830133 -0.23299034 0.39040366 -0.4876447 0.42744535 -0.5712307 0.24546868 0.11123013 0.5778902 -0.09531515 0.11775833 -0.05515844 -0.40459874 -0.46268708 0.30551654 0.060642093 -0.36190665 0.5146256 -0.12766524 0.70932525 0.02145495
todos 0.3488412 -0.07811751 0.46753913 0.17987755 0.08300916 0.20174454 0.11663378 0.28882518 0.18649055 -0.17535928 -0.09426817 0.24185506 -0.13640927 -0.39114386 0.009530366 -0.51244706 0.19962397 0.574491 0.799445 0.8805033 0.0059627714 0.26002803 0.036052275 0.23065095 -0.64428854 0.16617817 -0.370806 -0.2811877 -0.1492237 -0.09805613 0.09457386 -0.014364256 -0.07955702 -0.06166696 -0.15823708 0.04994033 -0.15238714 0.34807417 -0.5687509 0.101003826 0.017600683 0.41513225 -0.2618309 -0.6060588 -0.2393886 0.4254329 -0.5079912 0.56097156 -0.59763783 0.19724086 0.1371346 0.6111849 -0.040257853 0.08007048 0.007631908 -0.40613076 -0.47654706 0.40301353 0.09779383 -0.48052526 0.6804331 -0.10999856 0.7409603 0.028877826
v 0.31098324 -0.056967244 0.43493447 0.14906995 0.0727445 0.11102188 0.06824927 0.24410838 0.116929285 -0.14747313 -0.040690668 0.2194771 -0.14704221 -0.31244907 0.060001064 -0.38436273 0.15134127 0.44341058 0.66348916 0.69581944 0.017433124 0.22268945 0.051520057 0.15848492 -0.503157 0.12477454 -0.31787512 -0.24199599 -0.08809739 -0.038534738 0.076349355 0.011793551 -0.032241035 -0.075877585 -0.11796512 0.027758155 -0.13282633 0.2621583 -0.4749153 0.08268458 0.024312219 0.30123466 -0.24750063 -0.5060265 -0.18814035 0.34760696 -0.44236574 0.45158422 -0.5264559 0.14467828 0.1496752 0.5039511 -0.031192783 0.09799633 0.010909571 -0.3165354 -0.4273589 0.3849268 0.057761934 -0.39476782 0.55661553 -0.10400817 0.6348063 0.0038910117
pq 0.3350529 -0.07547332 0.45371732 0.20620139 0.091015354 0.18570648 0.1276856 0.28350425 0.16647422 -0.14936239 -0.058994453 0.2522896 -0.15780906 -0.36017692 0.024613757 -0.5226051 0.1818475 0.5547197 0.8067695 0.88853973 0.0059816935 0.26550454 0.034209326 0.23661189 -0.6230281 0.17773417 -0.36625233 -0.27500355 -0.14618753 -0.07801619 0.08895145 -0.0062623606 -0.07853952 -0.061904456 -0.14450926 0.03963114 -0.14262201 0.3507667 -0.5628446 0.08397553 0.023031395 0.41435093 -0.2520837 -0.6133444 -0.24542078 0.405642 -0.51387393 0.5361001 -0.60178536 0.19617744 0.1580832 0.6128579 -0.055290416 0.10334068 -0.003901009 -0.40550438 -0.5010785 0.39016494 0.08951888 -0.4674316 0.65841997 -0.11359436 0.7568492 0.026708057
pessoas 0.22424908 -0.0068422584 0.34694937 0.1567353 0.07674084 0.18668096 0.12087876 0.20469946 0.124887474 -0.10077411 -0.06306283 0.2100606 -0.13028376 -0.27290583 0.00804424 -0.51093626 0.19242351 0.4929697 0.68252707 0.78748834 0.051228926 0.28123072 -0.011930706 0.20050593 -0.4991479 0.2004688 -0.32184145 -0.30557874 -0.19932649 -0.12071742 0.062165827 -0.019519819 -0.054786563 -0.04278236 -0.11682471 0.0115578985 -0.09520736 0.25643957 -0.39554113 0.017408447 -0.038182482 0.29910147 -0.21767339 -0.4179882 -0.19873437 0.35803255 -0.47232315 0.39567634 -0.5055234 0.23191261 0.072633155 0.5090916 -0.081370205 0.1058597 -0.015708625 -0.3910098 -0.4359652 0.25336656 0.09074552 -0.3519689 0.486064 -0.109988526 0.64873284 0.047797438
hoje 0.23089528 -0.06076842 0.3331134 0.14669825 0.0720099 0.12789808 0.08830135 0.21144633 0.11766162 -0.13049287 -0.04434057 0.1975395 -0.0982768 -0.25894094 0.0047188755 -0.37405378 0.1325293 0.3982551 0.5646738 0.65492064 0.02122024 0.2134845 0.03968198 0.14604564 -0.44475102 0.1275989 -0.2883932 -0.21046025 -0.10958763 -0.047937445 0.069652274 -0.0074035884 -0.05624531 -0.066808775 -0.111860104 0.023093157 -0.10858645 0.24274251 -0.41366947 0.04334303 0.010020964 0.28964424 -0.19645412 -0.42954072 -0.17584196 0.3044481 -0.3770454 0.39709303 -0.45073858 0.14143708 0.11714111 0.45783067 -0.05057962 0.08655862 -0.029925724 -0.29199815 -0.37766707 0.3027978 0.044580635 -0.32387435 0.4562768 -0.08812326 0.5629899 0.017452747
te 0.3242561 -0.06990297 0.43006384 0.17011125 0.08908299 0.18228361 0.13051638 0.2680443 0.16112761 -0.15123601 -0.07345734 0.24208087 -0.14540611 -0.32324648 0.011983931 -0.49332216 0.19604653 0.5103874 0.74912566 0.83360815 0.038461667 0.2616799 0.0302319 0.1966561 -0.5753593 0.15717779 -0.3584613 -0.2647523 -0.13856049 -0.090786815 0.085942596 -0.0064396174 -0.07571783 -0.055096228 -0.14114662 0.028833846 -0.14308824 0.33697516 -0.5135094 0.06784834 0.027569862 0.36222965 -0.24933773 -0.5559981 -0.23532632 0.3912164 -0.4755518 0.49025118 -0.57005304 0.20406576 0.13152494 0.5795762 -0.05896469 0.09802825 -0.015529732 -0.39184165 -0.4757248 0.36897886 0.08204819 -0.41528323 0.6202137 -0.122207284 0.719423 0.016542781
aqui 0.287748 -0.039887607 0.40465602 0.19220082 0.116891615 0.20543137 0.13315083 0.2567865 0.1294307 -0.1527942 -0.06759051 0.2162361 -0.15308496 -0.3226185 0.035343494 -0.56185836 0.20013744 0.5749526 0.7768871 0.88169 0.026576051 0.27982768 -0.030352497 0.22770308 -0.5835805 0.20054111 -0.35291997 -0.2908145 -0.18091856 -0.08713102 0.09047724 0.008750892 -0.08272861 -0.0048124664 -0.08565249 0.05512944 -0.14359488 0.310161 -0.49217492 0.046628326 -0.025851434 0.3920862 -0.2520756 -0.539059 -0.23812297 0.39851797 -0.4996486 0.5052713 -0.5522802 0.2248808 0.11060968 0.57152325 -0.06772827 0.059994955 0.012313672 -0.44983485 -0.46639568 0.3256811 0.09876271 -0.45326108 0.606577 -0.12264348 0.6938148 -0.0075211315
nos 0.23177847 -0.06506776 0.33368376 0.13304661 0.07401162 0.16663224 0.11435602 0.2249557 0.14298375 -0.105477475 -0.07227989 0.18415986 -0.11184499 -0.26196876 -0.024734331 -0.42433828 0.13976663 0.42542726 0.6184524 0.70996565 0.030272456 0.22879942 0.0019283941 0.17138728 -0.47606024 0.1588949 -0.2960717 -0.2235246 -0.15372688 -0.079114266 0.07637132 -0.00234329 -0.053298064 -0.06009451 -0.10002065 0.021661837 -0.10747705 0.26412803 -0.41393968 0.03742058 -0.008276933 0.29755187 -0.18646124 -0.4063483 -0.21298449 0.33384836 -0.39868003 0.38765973 -0.47131646 0.18617599 0.10408179 0.45936403 -0.07528335 0.08593196 -0.020697957 -0.3249365 -0.37664768 0.2695565 0.05809657 -0.32607 0.45658064 -0.09362594 0.5771961 0.031019514
morrendo 0.20434646 -0.053699218 0.35073623 0.16008687 0.10650809 0.19487682 0.18644878 0.25658244 0.13074583 -0.09689817 -0.08362581 0.19991396 -0.12764564 -0.2855654 -0.007206234 -0.60563874 0.1556422 0.514773 0.75886285 0.8592783 0.042807225 0.26911998 -0.00536865 0.24655378 -0.5534384 0.2362589 -0.32960925 -0.25043046 -0.27146444 -0.08979549 0.11182412 -0.027928494 -0.0973605 0.014532462 -0.0123159895 0.022512708 -0.0824942 0.25595444 -0.44079134 0.021487992 -0.013455213 0.37002733 -0.21271905 -0.44986495 -0.27400288 0.3749538 -0.52995443 0.44517577 -0.4921951 0.23119609 0.07840637 0.47246534 -0.11035779 0.0841745 0.007957175 -0.4265267 -0.4623991 0.21868083 0.10973271 -0.36912158 0.53388846 -0.14500087 0.63823724 0.002928085
bom 0.18573193 0.010527135 0.29712218 0.1530447 0.085320316 0.21508828 0.13580859 0.19513647 0.09001956 -0.07693356 -0.06498791 0.1343177 -0.1608169 -0.24357337 0.023144998 -0.5287572 0.16983555 0.49663475 0.64724684 0.7229851 0.031801715 0.2584688 -0.13027047 0.22377992 -0.46476135 0.23873433 -0.23396342 -0.28108153 -0.16562718 -0.10157955 0.0437731 0.03878238 -0.049517572 0.065862015 0.0312198 -0.0074298396 -0.11916155 0.21964155 -0.31550127 0.027030423 -0.06902192 0.31279045 -0.18231176 -0.41753417 -0.16119029 0.2972232 -0.39330715 0.3547855 -0.40701172 0.22385916 -0.0050864243 0.40329614 -0.094361916 0.03282662 0.041931473 -0.37298203 -0.37270626 0.16220494 0.052440792 -0.39402595 0.42104158 -0.09384631 0.4780888 0.02092628
todo 0.22871786 -0.067668736 0.33080885 0.14026274 0.06505079 0.11076478 0.093290076 0.20325185 0.10377013 -0.10539205 -0.04149315 0.18219882 -0.122855 -0.25334716 0.019191166 -0.3656637 0.11788352 0.3841399 0.57791924 0.62344503 0.046365988 0.2112355 0.05049716 0.13581218 -0.40738362 0.13192514 -0.28074276 -0.21644074 -0.11713463 -0.07367533 0.04909326 -0.014382782 -0.036883093 -0.051193684 -0.118397586 0.032642107 -0.087480634 0.24006653 -0.39143488 0.024532486 0.013887394 0.24916549 -0.19576998 -0.38616794 -0.18089247 0.27279177 -0.3766819 0.37611473 -0.4367079 0.15081838 0.103452906 0.4112734 -0.06485378 0.08739375 0.0060581686 -0.2987761 -0.39149687 0.2585041 0.07911327 -0.30361125 0.4487551 -0.09433466 0.5448376 0.039219245
vel 0.35579914 -0.06864652 0.5020435 0.22982416 0.11688042 0.22657359 0.14305845 0.2882655 0.18488789 -0.18234487 -0.065787144 0.28351492 -0.1761993 -0.39774048 0.026357539 -0.61270565 0.23283951 0.6489598 0.8937665 1.014542 0.049326524 0.34686583 -0.0012415033 0.25405842 -0.69583315 0.20807317 -0.4150891 -0.34928754 -0.18670905 -0.13053942 0.10409673 0.0011824028 -0.109375075 -0.058279064 -0.14153954 0.03978521 -0.17229122 0.3848765 -0.59824944 0.06452742 0.00039567266 0.44800994 -0.2749781 -0.6373883 -0.28001076 0.49142796 -0.57734305 0.5738956 -0.6808057 0.26153442 0.14511159 0.7089586 -0.083976045 0.12071326 -0.024775617 -0.5048849 -0.55811137 0.40987423 0.10931076 -0.5132243 0.6952609 -0.13717626 0.8659032 0.046520073
vi 0.2281746 -0.052504282 0.34153292 0.15579423 0.0811543 0.17499265 0.11795556 0.20073074 0.13241094 -0.10899933 -0.068026215 0.21992867 -0.12637745 -0.27638328 -0.013788653 -0.47498992 0.1746277 0.47047305 0.6599831 0.7793421 0.062083393 0.26796985 -0.006141802 0.18836449 -0.49738538 0.18092483 -0.31911117 -0.2761146 -0.16951697 -0.112996235 0.085711665 -0.00405272 -0.06296333 -0.055760127 -0.11397305 0.026614804 -0.124438666 0.26885477 -0.41939247 0.0072971527 -0.02333222 0.31890434 -0.18694681 -0.42982638 -0.20957813 0.37400997 -0.43203002 0.38807583 -0.50957435 0.20350458 0.10373724 0.5127416 -0.07825559 0.11515771 -0.050934717 -0.37167338 -0.419498 0.2755245 0.07452468 -0.3332896 0.4815621 -0.10664822 0.6558611 0.05395665
coisas 0.2515345 -0.023347095 0.36408955 0.18095937 0.09084796 0.18330953 0.12148402 0.19685027 0.12970993 -0.117184505 -0.023332879 0.21187405 -0.15676068 -0.29047126 0.044877186 -0.5363213 0.24007888 0.5364394 0.7216475 0.85090846 0.09697844 0.3209842 0.005392124 0.1880272 -0.5249768 0.19731627 -0.33550975 -0.33366475 -0.21596892 -0.1317851 0.07395193 -0.012534771 -0.08197376 -0.026045844 -0.099267796 0.027830543 -0.10834537 0.2742599 -0.44021514 0.03009149 -0.04186668 0.3291002 -0.21234256 -0.47027543 -0.20727925 0.40245962 -0.50534976 0.40910393 -0.53533304 0.22655019 0.09888384 0.54533535 -0.07371513 0.0919725 -0.003679482 -0.42601308 -0.43921444 0.26152325 0.14347607 -0.37476176 0.52574027 -0.12034596 0.7050838 0.04760477
manaus 0.27648485 -0.050962176 0.3633816 0.17401983 0.09089798 0.1591622 0.094935186 0.21368217 0.11790977 -0.12620306 -0.041165214 0.21595936 -0.14457509 -0.2881452 0.01864811 -0.45611766 0.17297731 0.46338174 0.68544865 0.75871074 0.038551953 0.25906423 0.02201229 0.17639327 -0.49809223 0.16384207 -0.31805342 -0.26103264 -0.14337468 -0.090639785 0.069155544 -0.004327203 -0.060575325 -0.05830276 -0.12661417 0.029221391 -0.11201002 0.26680428 -0.46263874 0.06287202 0.007444917 0.3217559 -0.23174308 -0.46586698 -0.20994711 0.3443346 -0.4543483 0.42952308 -0.51431566 0.18790142 0.12823834 0.5131785 -0.07235594 0.09857951 0.0033228134 -0.36866033 -0.41354108 0.30436736 0.089575134 -0.3670321 0.53279936 -0.115364 0.64802605 0.028412359
rafaelfontana 0.1679522 -0.09046878 0.24361987 0.094323486 0.014771542 -0.001038215 -0.018772662 0.10047587 0.120807216 -0.10548218 0.018253215 0.105152614 -0.06977299 -0.12908195 0.07472574 -0.1494648 0.07880126 0.16894141 0.24004665 0.2353556 0.011461967 0.11552404 0.053966112 0.04276925 -0.19462794 -0.012636357 -0.14473116 -0.08062126 0.012816744 0.025406877 0.05738799 -0.020139793 -0.03247726 -0.094317004 -0.12604274 0.03962284 -0.0591357 0.07334662 -0.24167289 0.014880376 0.037270814 0.08121495 -0.096181825 -0.23872848 -0.1137564 0.1749538 -0.18836895 0.19662914 -0.19555375 0.02801178 0.07075637 0.25671247 0.028094843 0.10409618 -0.03628866 -0.086034365 -0.17006342 0.22049676 -0.03917887 -0.12361063 0.19701478 -0.07923169 0.29055125 0.05109861
sifu 0.3303854 -0.19478929 0.51114863 0.1011714 -0.043249097 -0.0010687358 -0.021904223 0.23378192 0.17043781 -0.18294494 0.02892397 0.20444074 -0.15519813 -0.24985209 0.15786989 -0.25191352 0.1558367 0.28884235 0.5056557 0.43273336 -0.02886603 0.17209369 0.22120045 0.08728681 -0.41741395 0.0051845782 -0.2821856 -0.16688587 0.0593098 0.101595104 0.12742962 -0.042239092 0.015426589 -0.22038016 -0.30271444 0.042440947 -0.0819215 0.1773608 -0.48522928 0.095328525 0.12486145 0.12468487 -0.233091 -0.51242286 -0.20544899 0.3235816 -0.3835042 0.41689375 -0.36305627 0.016347697 0.2264156 0.44661245 0.006443019 0.21601915 -0.009143104 -0.16996498 -0.34121758 0.4818067 0.003353988 -0.22745956 0.46411917 -0.14281784 0.5164005 0.09246936
dwp 0.25260508 -0.050702885 0.43121475 0.049923256 -0.06372879 -0.111728676 -0.052157193 0.151571 0.060139775 -0.14625719 0.061522573 0.17011829 -0.08035874 -0.1873585 0.20873973 -0.08626509 0.10992431 0.16426358 0.30087134 0.3081961 0.060276035 0.12999721 0.26734442 -0.035566542 -0.23919639 0.010948848 -0.21200119 -0.13356921 0.011406646 0.16800791 0.059247576 0.041217614 0.090173066 -0.19775535 -0.22320585 -0.007981666 -0.05961441 0.0453419 -0.36597425 0.086232156 0.06335337 -0.071007535 -0.15164721 -0.3508409 -0.017617987 0.23763013 -0.29681912 0.32486117 -0.3483743 -0.09991981 0.24482504 0.2867932 0.024432844 0.2003165 -0.015707098 -0.06012368 -0.31657192 0.40508273 -0.007640761 -0.15071575 0.318625 -0.06995883 0.40120548 0.09070454
pnthha 0.16464855 -0.027779844 0.28756022 0.028075146 -0.029620947 -0.04308549 -0.027098378 0.09526078 0.044135626 -0.08259901 0.058838513 0.07994039 -0.03333449 -0.111797206 0.11781753 -0.08977299 0.05385418 0.112881884 0.2292049 0.21342905 0.021176156 0.1005019 0.15182358 -0.01971873 -0.15185139 0.004459106 -0.12233612 -0.07756536 0.0139504345 0.089302346 0.031463373 0.030390698 0.040814053 -0.12435073 -0.12722744 0.008119381 -0.040454622 0.056070864 -0.20081688 0.055868898 0.029875802 -0.017196324 -0.11887342 -0.20928563 -0.019437488 0.15087847 -0.19344707 0.1836052 -0.22685957 -0.05382304 0.14149286 0.19034445 0.0028911885 0.10284167 -0.013271213 -0.02587713 -0.18908685 0.2470813 0.020762768 -0.120340906 0.2038927 -0.061274685 0.27717414 0.05394983
pedalada 0.096913524 0.012353371 0.21984194 0.07019825 0.091840796 0.14259318 0.1279838 0.1900163 0.027821172 -0.028522514 -0.05130664 0.07682868 -0.11410979 -0.17007759 0.02810264 -0.33524376 0.021664038 0.30856338 0.454802 0.4810104 9.793056e-05 0.09281929 -0.05156066 0.16247073 -0.2733535 0.12209766 -0.12979856 -0.09541644 -0.123468354 0.020511184 0.06819963 0.008070758 -0.003702741 0.08545676 0.12974545 0.0025638468 -0.05133176 0.08714681 -0.26093674 0.020303538 -0.025783252 0.25870025 -0.15585737 -0.28199682 -0.15127057 0.14531587 -0.28527406 0.251362 -0.24149421 0.08511488 -0.0038796226 0.19028254 -0.05956687 0.0034329363 0.10162835 -0.22876623 -0.26991022 0.12152322 0.06091538 -0.27176228 0.28051376 -0.075308494 0.20463398 -0.06408837
fiscal 0.14479467 -0.045615252 0.24310398 0.0718664 0.0713926 0.121715136 0.12810671 0.23783025 0.09540908 -0.041739997 -0.08094209 0.1042186 -0.11570744 -0.18841702 -0.00066747435 -0.38952357 0.06169688 0.3311043 0.520921 0.5835507 0.005962677 0.16702767 0.002774343 0.18992342 -0.35202274 0.17342122 -0.17616563 -0.14219318 -0.15478498 -0.04348367 0.057212748 -0.023227977 -0.02018642 0.045519263 0.042698827 -0.024016444 -0.04213475 0.17863864 -0.33093733 0.016092418 -0.004789211 0.2401738 -0.16124848 -0.32475746 -0.17403549 0.19268355 -0.36022276 0.3074685 -0.3401507 0.1435869 0.044323534 0.2747504 -0.0980386 0.081260815 0.07761573 -0.22978917 -0.3298772 0.17647973 0.07012455 -0.2642445 0.35844997 -0.08637864 0.33083016 0.013859536
at 0.21143572 -0.053349245 0.27498168 0.1571935 0.08273572 0.1590269 0.10926911 0.19674271 0.115488425 -0.122953065 -0.03514263 0.18063438 -0.11271222 -0.22798981 -0.012687837 -0.44117215 0.16632575 0.4374983 0.5996387 0.6897687 0.050549056 0.2276204 -0.015074118 0.16503209 -0.4506823 0.15715402 -0.2885073 -0.22745553 -0.17202584 -0.09393843 0.07504257 -0.01949881 -0.073607 -0.039031077 -0.11710436 0.03658179 -0.08154102 0.24076042 -0.3812502 0.028970446 -0.013403509 0.29832482 -0.18278573 -0.41644126 -0.20311074 0.32834375 -0.38681087 0.3561704 -0.4395202 0.19154781 0.08326295 0.45582885 -0.052659683 0.09567242 -0.0183507 -0.3601807 -0.35389623 0.22709247 0.08371073 -0.30662933 0.43583515 -0.08216104 0.5756789 0.02785727
ningu 0.21771984 -0.065816686 0.2994566 0.12317264 0.08298544 0.096219756 0.04201746 0.14661022 0.08386233 -0.092610106 -0.029741757 0.1589979 -0.12712023 -0.22660373 0.050621267 -0.31344795 0.11468371 0.3560709 0.49832535 0.50534576 -0.0026354082 0.17720634 0.015692772 0.12775174 -0.37895697 0.100155696 -0.2624527 -0.18379831 -0.058100596 -0.04416521 0.029836366 -0.028700173 -0.024568494 -0.012143428 -0.09490452 0.044255063 -0.085448034 0.21335523 -0.36385512 0.03777004 0.009450024 0.2501507 -0.1774232 -0.37589663 -0.16534464 0.22482216 -0.3384409 0.33844957 -0.38281003 0.12889895 0.08638688 0.34408003 -0.037734065 0.051745247 0.0108253155 -0.24874362 -0.33145764 0.2511417 0.05903381 -0.3039435 0.41431004 -0.09394339 0.44104624 -0.018965112
nesse 0.2708534 -0.063150436 0.38293335 0.18951781 0.08300812 0.16016994 0.08476048 0.22727524 0.14060801 -0.15005451 -0.03826891 0.21060291 -0.14659247 -0.29768422 0.03456199 -0.47502103 0.18078513 0.4839029 0.6641115 0.75708747 0.041420735 0.2612946 0.008747388 0.19063269 -0.5066139 0.15048811 -0.3191706 -0.26923475 -0.13010268 -0.09930384 0.08077588 -0.011001408 -0.0853101 -0.072905056 -0.13722698 0.029477652 -0.11971677 0.2896788 -0.46545896 0.041379306 -0.0008563012 0.32786885 -0.2194141 -0.4900102 -0.20520182 0.34884977 -0.43244144 0.426509 -0.5061789 0.18228793 0.12198899 0.5393206 -0.050669573 0.11089692 -0.0089815175 -0.36569148 -0.4339117 0.3232809 0.06893417 -0.3576349 0.5118461 -0.12003014 0.6642516 0.0277022
sou 0.28127754 -0.056857668 0.37361017 0.16147257 0.081109695 0.14795293 0.10895635 0.223238 0.127455 -0.13233443 -0.059083894 0.21787256 -0.13528469 -0.28826308 0.010808496 -0.43112212 0.1610497 0.46461278 0.65741646 0.7391229 0.02520521 0.24507739 0.029285364 0.16572246 -0.5047469 0.15112254 -0.30751356 -0.25751787 -0.1222238 -0.08528517 0.06618675 -0.0025527375 -0.05512194 -0.065760784 -0.12042341 0.027271489 -0.13005085 0.28488517 -0.4600449 0.048754357 0.01035387 0.31213543 -0.21506877 -0.4794014 -0.20593502 0.34974906 -0.43815273 0.43805566 -0.49893418 0.1725854 0.11159003 0.4955459 -0.06634311 0.095868096 -0.0067200894 -0.34335876 -0.40867916 0.32532325 0.069464885 -0.37187004 0.5310601 -0.10400929 0.64280826 0.022213265
dessa 0.2371758 -0.054364737 0.32976845 0.1412938 0.067835875 0.13950703 0.10281309 0.19165485 0.11444786 -0.10282943 -0.0617703 0.18033479 -0.11784245 -0.260415 0.0133745205 -0.3866154 0.1319192 0.39739475 0.5781406 0.65219945 0.03513135 0.22958307 0.012665482 0.14700675 -0.44495684 0.15573335 -0.28153345 -0.21890147 -0.13355629 -0.06533267 0.06459714 0.005259253 -0.045468193 -0.048936862 -0.098975204 0.019787636 -0.10944087 0.23913193 -0.39249015 0.037351724 0.004155256 0.2585563 -0.19632885 -0.3959166 -0.17435727 0.30707377 -0.38265187 0.38166776 -0.43805057 0.15413316 0.10247623 0.42340055 -0.051233713 0.07724295 -0.014224833 -0.2975128 -0.3701192 0.2607414 0.054239694 -0.33074462 0.43941218 -0.09162935 0.55026335 0.032669943
dele 0.22381389 -0.054327976 0.28187472 0.1035228 0.03586566 0.072016805 0.03445023 0.16688856 0.089384094 -0.08486136 -0.042388592 0.15712343 -0.102636315 -0.21190152 0.025414087 -0.2513837 0.08437981 0.2857335 0.45374176 0.4583964 0.0011651855 0.14423367 0.056757867 0.09738851 -0.33407864 0.0645531 -0.24248233 -0.15497515 -0.041197486 -0.029743139 0.05207771 -0.027832652 -0.029401574 -0.07225537 -0.10934596 0.027985256 -0.08174505 0.20148627 -0.3616558 0.050469138 0.03569999 0.21402986 -0.14906237 -0.3413965 -0.14799206 0.22085144 -0.29810408 0.30494446 -0.3645885 0.11040909 0.111243844 0.3468839 -0.04715648 0.07455108 -0.01878901 -0.19806051 -0.3083805 0.25118616 0.04348835 -0.2299389 0.38943866 -0.08490329 0.45861223 0.0027129638
mesmo 0.3282842 -0.07419301 0.44306484 0.16740064 0.08712003 0.16239154 0.10611362 0.2506534 0.1578911 -0.15639587 -0.051483277 0.22928123 -0.14849299 -0.32479522 0.037034936 -0.49260408 0.18800525 0.5255873 0.7362234 0.8011689 0.01906556 0.27247798 0.042584028 0.19334789 -0.58770406 0.1451263 -0.34308007 -0.26615155 -0.12715018 -0.08249723 0.09582131 -0.011880475 -0.07009631 -0.07194974 -0.14931399 0.03228572 -0.1496047 0.32322899 -0.5272488 0.059290953 0.012783978 0.3590847 -0.24595511 -0.5503997 -0.23028953 0.38804787 -0.4884262 0.49643862 -0.54155666 0.17979945 0.1506841 0.5752207 -0.05935527 0.10683744 -0.0026070378 -0.38379252 -0.4544436 0.3743367 0.07729387 -0.40405264 0.6030253 -0.1312531 0.6976055 0.03671695
av 0.20933117 -0.050663345 0.3273039 0.12557358 0.07678906 0.09332097 0.07492327 0.18670215 0.102710575 -0.11446 -0.03549216 0.19830246 -0.11089253 -0.2235044 0.019796625 -0.34309462 0.13711068 0.3584826 0.5086269 0.59192103 0.025673574 0.2285543 3.005081e-05 0.1154184 -0.3979822 0.110893875 -0.26818445 -0.21661068 -0.09825652 -0.06714597 0.04815366 -0.025984226 -0.052452702 -0.064528055 -0.102744184 0.021381283 -0.10656673 0.23648947 -0.35446858 0.023424845 0.005779999 0.25616518 -0.16489194 -0.37194356 -0.17156082 0.2885641 -0.33970675 0.32418814 -0.41202137 0.1504103 0.096674345 0.42572147 -0.045355145 0.092036225 -0.04171785 -0.26931337 -0.34737357 0.24685386 0.0682576 -0.2968544 0.40265667 -0.093537286 0.53218484 0.022908831
ai 0.25572655 -0.045656458 0.3840667 0.15471329 0.06455319 0.12489175 0.09063053 0.21823713 0.114066154 -0.13587417 -0.02423982 0.20117909 -0.1256561 -0.28185886 0.046617772 -0.41130283 0.15914895 0.44186303 0.61567754 0.703171 0.035780337 0.23974799 0.043125004 0.16051672 -0.4706576 0.1389757 -0.29643115 -0.24672052 -0.12378952 -0.05510191 0.071732536 0.006603956 -0.054134347 -0.07797167 -0.12220046 0.02161596 -0.111046076 0.24257019 -0.4319049 0.048888363 -0.008358009 0.2734221 -0.2091564 -0.45886907 -0.17525098 0.32356358 -0.4254013 0.40439424 -0.47800216 0.16424304 0.112586506 0.4710964 -0.058817983 0.094251186 -0.007540989 -0.31686395 -0.40454698 0.3187848 0.0684555 -0.33413112 0.49212313 -0.10550483 0.6168463 0.04304636
nem 0.25066292 -0.035209253 0.35167477 0.17124698 0.086359344 0.17725922 0.12279248 0.20238481 0.14044437 -0.103952244 -0.04029061 0.19807625 -0.14449003 -0.2747353 0.012253851 -0.4935503 0.2007883 0.48519325 0.66533124 0.7734515 0.045910675 0.27537704 0.0011395544 0.2081273 -0.50501025 0.19502442 -0.3060656 -0.2755122 -0.1798706 -0.10131621 0.05767507 -0.024023524 -0.070574276 -0.04004345 -0.09617339 0.021582693 -0.12593915 0.2686606 -0.42845726 0.025808908 -0.024062974 0.33784172 -0.21615979 -0.44820428 -0.2152528 0.36003047 -0.45783666 0.4151769 -0.5041063 0.21864565 0.09605855 0.5087082 -0.08400708 0.09287536 0.0015107188 -0.38633472 -0.4018227 0.2556416 0.08984926 -0.37317812 0.5146173 -0.10537054 0.64817196 0.045455635
porra 0.2782956 -0.027231546 0.3740646 0.17533201 0.07826005 0.16204138 0.0984961 0.20807534 0.12995283 -0.13853519 -0.045694172 0.20566185 -0.13192524 -0.30564365 0.040497106 -0.49563903 0.19345367 0.50007534 0.6819066 0.7851269 0.03941737 0.27529192 0.029057281 0.19030789 -0.52211565 0.17957014 -0.32368985 -0.27545613 -0.18077943 -0.124954045 0.07082306 -0.012049762 -0.09040786 -0.047384392 -0.1152346 0.024955085 -0.105346 0.27773738 -0.45249352 0.038935337 -0.01812442 0.34589508 -0.22355245 -0.4768969 -0.20940828 0.3758191 -0.45993456 0.41534874 -0.5137685 0.21632421 0.11386695 0.5145034 -0.07002567 0.09770252 -0.012036327 -0.37609875 -0.4248352 0.2713473 0.1059867 -0.38167617 0.5301429 -0.10939763 0.68618935 0.02698877
c 0.2740636 -0.051971994 0.38588473 0.14816247 0.06790273 0.14085107 0.09809297 0.21180429 0.116215914 -0.13082823 -0.046401158 0.19944854 -0.13758346 -0.2763881 0.029717566 -0.45007673 0.18134521 0.45891058 0.6564708 0.737321 0.049310368 0.24430318 0.016290868 0.159759 -0.4935471 0.15721327 -0.31363773 -0.25111014 -0.14360988 -0.08158926 0.080790035 -0.00032854907 -0.04861019 -0.058962118 -0.116726644 0.026464986 -0.13295831 0.27329054 -0.4456924 0.05893355 -0.0013437513 0.3057909 -0.21972144 -0.4687853 -0.18575375 0.3543444 -0.43684268 0.42631048 -0.4959794 0.17253572 0.11149251 0.49131837 -0.05565556 0.092902064 -3.2990516e-05 -0.36220884 -0.4023232 0.30171096 0.083612114 -0.38176724 0.5194985 -0.10575325 0.63240767 0.021950955
gosta 0.22314471 -0.07297285 0.27997357 0.08864137 0.062829755 0.10188238 0.056225963 0.17767535 0.07717648 -0.07402178 -0.0604759 0.15151006 -0.102443 -0.2372254 -0.0013274236 -0.23698251 0.08835658 0.28774238 0.46545717 0.4791662 -0.006009909 0.11818233 0.03059267 0.116630375 -0.36174363 0.055397987 -0.21851909 -0.12642354 -0.044786952 -0.037950467 0.04450691 -0.01543519 -0.023943398 -0.019370694 -0.09416352 0.01919767 -0.08400891 0.21429531 -0.36715055 0.067209266 0.034272596 0.28274778 -0.16565491 -0.38883883 -0.14008357 0.20773658 -0.3000306 0.32798973 -0.3326343 0.090122335 0.09820926 0.3189177 -0.004471167 0.035099093 0.0302361 -0.21927306 -0.3002906 0.27141246 0.0694793 -0.27326936 0.43028188 -0.06585673 0.38876104 -0.03554134
depois 0.18387225 -0.050445616 0.2706279 0.12124361 0.049307603 0.12120265 0.09328937 0.16466819 0.07606638 -0.109719045 -0.02254831 0.14090711 -0.085383505 -0.20402691 0.013576487 -0.3424912 0.13186426 0.33376712 0.4930366 0.5370266 0.013137046 0.18060382 0.0012724072 0.14064218 -0.37085563 0.12150547 -0.21309255 -0.17822888 -0.093557864 -0.043970387 0.07550576 -0.010345254 -0.056554653 -0.053626273 -0.10014192 0.02397926 -0.08444467 0.18473315 -0.31868088 0.038941853 -0.009182732 0.23799925 -0.15741682 -0.33868578 -0.15332346 0.27100292 -0.308362 0.3149441 -0.34314612 0.1323153 0.094862565 0.37080133 -0.055892825 0.05843493 -0.016771812 -0.2821447 -0.28896454 0.23021133 0.051021926 -0.2520831 0.37439364 -0.0748965 0.43359908 0.032469723
h 0.24350402 -0.042162303 0.33794105 0.1771802 0.080042884 0.17087425 0.119929515 0.18789625 0.12409042 -0.13053793 -0.031181898 0.18133593 -0.12797458 -0.25699908 0.024457302 -0.4793442 0.18638316 0.475331 0.62525666 0.7516772 0.0707644 0.26564154 -0.009519906 0.1808717 -0.48405772 0.1836797 -0.2939747 -0.27189174 -0.18136215 -0.09755111 0.06910941 0.011070866 -0.07579585 -0.03862353 -0.09655082 0.025104346 -0.10738991 0.26657945 -0.3934034 0.04126406 -0.0246523 0.30640712 -0.19568709 -0.4336044 -0.19881167 0.35315102 -0.44222504 0.4002781 -0.48559323 0.19642372 0.08813115 0.51549226 -0.05751382 0.08928591 -0.023634708 -0.38677117 -0.3971409 0.2607593 0.09810128 -0.3607172 0.47747108 -0.09838577 0.6188234 0.044255096
direitasiqueira 0.06679308 0.014212132 0.11933296 0.08399135 0.009476411 0.11518967 0.049184166 0.08128363 0.06663475 -0.0029602586 -0.035322193 0.07463031 -0.087155454 -0.09326634 0.01863557 -0.23857437 0.08021462 0.22677782 0.2712421 0.347302 0.048333857 0.15810709 -0.074000336 0.08721258 -0.20483829 0.11125863 -0.121688604 -0.1561093 -0.11008427 -0.08596897 0.010283105 0.018081017 -0.019697914 0.009512802 0.018622048 -0.006943559 -0.036098335 0.09016729 -0.10974229 -0.025487388 -0.06639024 0.1164206 -0.068648934 -0.15843676 -0.059540536 0.14388941 -0.16480346 0.14027889 -0.19406994 0.10706555 -0.022489965 0.19876534 -0.03878942 0.036046658 -0.0025665816 -0.15998378 -0.18360685 0.04481576 0.0024254872 -0.16380814 0.13214236 -0.03753539 0.25294316 0.060734484
